svm_type c_svc
kernel_type sigmoid
gamma 0.125
coef0 0
nr_class 2
total_sv 402
rho -1
label 0 1
nr_sv 201 201
SV
1 1:-2.8e-008 3:-1e-009 8:-3.9535251e-007 
1 1:-3.1999999e-008 6:-1e-009 8:-8.2218353e-010 
1 1:-3.0999999e-008 5:-1e-009 6:-1e-009 8:-3.9534169e-007 
1 1:-3.1999999e-008 3:-1e-009 8:-1.3536307e-009 
1 1:-2e-009 2:-1e-009 3:-1e-009 6:-1e-009 7:-1e-009 8:-3.2842374e-010 
1 1:-5.9999999e-009 6:-1e-009 7:-1e-009 8:-2.0217147e-009 
1 1:-2.9999999e-008 6:-1e-009 7:-2e-009 8:-3.9250041e-007 
1 1:-1.3e-008 6:-1e-009 7:-1e-009 8:-7.9830311e-009 
1 1:-2.6e-008 3:-1e-009 7:-1e-009 8:-4.2661358e-009 
1 1:-3.9999999e-009 7:-1e-009 8:-3.1738248e-009 
1 1:-2.9999999e-009 3:-1e-009 8:-1.035352e-009 
1 1:-3.0999999e-008 6:-1e-009 7:-1e-009 8:-1.2851978e-009 
1 1:-3.0999999e-008 5:-1e-009 8:-2.0806042e-009 
1 1:-1.6e-008 5:-1e-009 6:-1e-009 8:-3.6709468e-009 
1 1:-6.9999999e-009 3:-1e-009 7:-1e-009 8:-3.7582418e-009 
1 1:-1.2e-008 2:-1e-009 3:-1e-009 7:-1e-009 8:-1.2264976e-009 
1 1:-5.9999999e-009 
1 1:-1.7e-008 6:-1e-009 7:-1e-009 8:-7.4119669e-010 
1 1:-9.9999998e-010 2:-1e-009 3:-1e-009 7:-4e-009 8:-7.3869584e-010 
1 1:-1.4e-008 3:-1e-009 8:-7.4370535e-009 
1 1:-2e-009 2:-1e-009 7:-1e-009 8:-2.3975095e-009 
1 1:-3.1999999e-008 6:-1e-009 8:-1.543735e-009 
1 1:-2e-009 5:-1e-009 6:-1e-009 8:-2.8400189e-009 
1 1:-1.1e-008 6:-1e-009 8:-2.5308287e-009 
1 1:-2.6e-008 2:-1e-009 5:-1e-009 6:-1e-009 7:-1e-009 8:-2.3560609e-009 
1 1:-3.9999999e-009 3:-1e-009 7:-2e-009 8:-1.2867388e-009 
1 1:-1.8e-008 6:-1e-009 8:-1.3979851e-009 
1 1:-1.6e-008 6:-1e-009 7:-1e-009 8:-4.1168764e-009 
1 1:-2.9e-008 6:-1e-009 7:-1e-009 8:-3.0122983e-009 
1 6:-1e-009 7:-1e-009 8:-1.9326778e-009 
1 1:-2e-009 7:-1e-009 8:-2.2645834e-009 
1 1:-2.2e-008 2:-1e-009 3:-1e-009 7:-1e-009 8:-1.3712753e-009 
1 1:-2e-009 2:-1e-009 7:-1e-009 8:-1.7717249e-009 
1 1:-2e-009 3:-1e-009 7:-2e-009 8:-1.5671757e-009 
1 1:-2.9e-008 2:-1e-009 6:-1e-009 
1 1:-3.9999999e-009 5:-1e-009 7:-1e-009 8:-2.0650507e-009 
1 1:-1.1e-008 2:-1e-009 3:-1e-009 8:-6.3461736e-009 
1 3:-1e-009 7:-2e-009 8:-1.9405951e-009 
1 1:-2.7e-008 3:-1e-009 7:-2e-009 8:-6.3548064e-010 
1 1:-2.9999999e-008 6:-1e-009 8:-3.7872281e-009 
1 1:-6.9999999e-009 2:-1e-009 5:-1e-009 6:-1e-009 7:-1e-009 8:-1.7106886e-009 
1 6:-1e-009 8:-6.5102704e-009 
1 1:-2.5e-008 5:-1e-009 6:-1e-009 8:-1.6217977e-009 
1 1:-3.9999999e-009 3:-1e-009 6:-1e-009 8:-1.9330334e-009 
1 1:-4.9999999e-009 3:-1e-009 6:-1e-009 7:-2e-009 8:-1.9598449e-009 
1 1:-2.7e-008 7:-2e-009 8:-1.1180824e-009 
1 1:-2.2e-008 2:-1e-009 3:-1e-009 5:-1e-009 8:-2.1807959e-009 
1 1:-1.5e-008 6:-1e-009 7:-1e-009 8:-2.1807959e-009 
1 1:-2.9e-008 5:-1e-009 6:-1e-009 7:-1e-009 8:-3.1592975e-009 
1 1:-2.2e-008 6:-1e-009 7:-2e-009 8:-5.7380511e-010 
1 1:-4.9999999e-009 3:-1e-009 8:-1.3712753e-009 
1 1:-7.9999999e-009 2:-1e-009 6:-1e-009 8:-2.9982047e-009 
1 1:-3.9999999e-009 6:-1e-009 7:-1e-009 8:-8.2218353e-010 
1 1:-2.6e-008 2:-1e-009 3:-1e-009 8:-6.2550876e-009 
1 1:-8.9999998e-009 3:-1e-009 5:-1e-009 7:-2e-009 8:-1.4285389e-009 
1 1:-6.9999999e-009 7:-1e-009 8:-4.8761673e-009 
1 1:-1.6e-008 5:-1e-009 6:-1e-009 8:-2.8023518e-010 
1 1:-9.9999998e-009 3:-1e-009 8:-1.5118141e-009 
1 1:-2.9e-008 6:-1e-009 7:-2e-009 8:-3.9323556e-010 
1 1:-1.8e-008 2:-1e-009 3:-1e-009 5:-1e-009 8:-5.6414894e-009 
1 1:-3.9999999e-009 6:-1e-009 7:-1e-009 8:-8.2218353e-010 
1 1:-1.4e-008 6:-1e-009 7:-2e-009 8:-3.1738248e-009 
1 1:-2e-009 3:-1e-009 5:-1e-009 6:-1e-009 8:-6.9596436e-009 
1 1:-2.4e-008 3:-1e-009 7:-1e-009 8:-1.4954298e-009 
1 1:-1.3e-008 6:-1e-009 8:-1.8044609e-009 
1 1:-9.9999998e-010 2:-1e-009 5:-1e-009 6:-1e-009 8:-3.63142e-010 
1 1:-2e-008 2:-1e-009 3:-1e-009 8:-6.5401448e-010 
1 1:-2.9999999e-008 5:-1e-009 6:-1e-009 8:-4.1319489e-010 
1 1:-6.9999999e-009 3:-1e-009 7:-1e-009 8:-3.921634e-009 
1 1:-1.9e-008 3:-1e-009 8:-1.2893161e-009 
1 1:-6.9999999e-009 2:-1e-009 5:-1e-009 6:-1e-009 7:-1e-009 8:-1.8316855e-009 
1 1:-5.9999999e-009 2:-1e-009 3:-1e-009 6:-1e-009 7:-1e-009 8:-1.78191e-009 
1 1:-2.4e-008 6:-1e-009 7:-1e-009 8:-2.7740483e-009 
1 1:-2.9e-008 6:-1e-009 7:-1e-009 8:-6.3461736e-009 
1 1:-1.1e-008 5:-1e-009 6:-1e-009 8:-3.9163135e-009 
1 1:-2.3e-008 6:-1e-009 7:-1e-009 8:-1.7503772e-009 
1 1:-2e-009 3:-1e-009 6:-1e-009 7:-1e-009 8:-2.273263e-009 
1 1:-4.9999999e-009 3:-1e-009 5:-1e-009 8:-1.5668354e-009 
1 1:-3.9999999e-009 7:-1e-009 8:-1.2176101e-009 
1 1:-2.1e-008 5:-1e-009 6:-1e-009 7:-2e-009 8:-7.8202896e-010 
1 1:-2e-009 8:-1.7717249e-009 
1 1:-2.9999999e-008 3:-1e-009 5:-1e-009 7:-1e-009 8:-5.2914518e-009 
1 1:-1.1e-008 3:-1e-009 8:-3.4534261e-009 
1 1:-2.6e-008 2:-1e-009 6:-1e-009 7:-1e-009 8:-8.2934388e-010 
1 1:-9.9999998e-009 3:-1e-009 6:-1e-009 7:-1e-009 
1 1:-2.7e-008 3:-1e-009 8:-2.0089027e-009 
1 1:-2.9e-008 3:-1e-009 7:-2e-009 8:-1.3854929e-009 
1 1:-9.9999998e-010 7:-2e-009 8:-6.5401448e-010 
1 1:-3.0999999e-008 6:-1e-009 7:-1e-009 8:-1.8750408e-009 
1 1:-2.9999999e-009 3:-1e-009 7:-2e-009 8:-3.9528281e-009 
1 1:-2e-009 3:-1e-009 7:-2e-009 8:-2.4290933e-009 
1 1:-3.0999999e-008 6:-1e-009 7:-1e-009 8:-1.4669742e-009 
1 1:-2.6e-008 3:-1e-009 8:-1.808475e-009 
1 1:-5.9999999e-009 3:-1e-009 8:-3.1094587e-009 
1 1:-3.1999999e-008 5:-1e-009 6:-1e-009 7:-2e-009 8:-9.5576498e-010 
1 1:-2.3e-008 6:-1e-009 7:-1e-009 8:-1.1466262e-009 
1 1:-9.9999998e-010 7:-2e-009 8:-5.9775951e-009 
1 1:-1.2e-008 6:-1e-009 7:-1e-009 8:-1.4285389e-009 
1 1:-1.8e-008 6:-1e-009 8:-5.6414894e-009 
1 3:-1e-009 5:-1e-009 8:-4.2661358e-009 
1 2:-1e-009 3:-1e-009 6:-1e-009 7:-5e-009 8:-3.51342e-009 
1 6:-1e-009 7:-1e-009 8:-6.3461736e-009 
1 6:-1e-009 7:-1e-009 
1 1:-1.3e-008 2:-1e-009 3:-1e-009 8:-1.2470211e-009 
1 1:-1.3e-008 3:-1e-009 5:-1e-009 8:-1.6217977e-009 
1 1:-2.6e-008 2:-1e-009 6:-1e-009 7:-2e-009 8:-4.8045058e-009 
1 1:-2.2e-008 6:-1e-009 7:-2e-009 8:-6.2697068e-009 
1 1:-2e-009 5:-1e-009 7:-1e-009 8:-2.9982047e-009 
1 1:-4.9999999e-009 3:-1e-009 7:-2e-009 8:-3.1592975e-009 
1 1:-2.8e-008 3:-1e-009 7:-1e-009 8:-2.9005924e-009 
1 1:-2.9999999e-008 6:-1e-009 7:-1e-009 8:-3.4534261e-009 
1 1:-4.9999999e-009 3:-1e-009 5:-1e-009 7:-1e-009 8:-1.2396309e-009 
1 1:-2.9999999e-009 3:-1e-009 6:-1e-009 8:-3.0370892e-009 
1 1:-5.9999999e-009 3:-1e-009 8:-1.5348642e-009 
1 1:-2.7e-008 3:-1e-009 5:-1e-009 6:-1e-009 8:-3.1756835e-009 
1 1:-1.5e-008 3:-1e-009 5:-1e-009 7:-1e-009 8:-6.0165918e-010 
1 1:-1.9e-008 6:-1e-009 7:-2e-009 8:-3.9394807e-007 
1 1:-4.9999999e-009 6:-1e-009 7:-2e-009 8:-3.1738248e-009 
1 1:-4.9999999e-009 5:-1e-009 6:-1e-009 8:-2.2150065e-009 
1 1:-5.9999999e-009 3:-1e-009 8:-1.5862162e-009 
1 1:-3.0999999e-008 5:-1e-009 7:-1e-009 8:-5.9161453e-010 
1 1:-1.5e-008 3:-1e-009 8:-8.612443e-010 
1 1:-2.9999999e-009 2:-1e-009 3:-1e-009 7:-1e-009 
1 1:-1.5e-008 2:-1e-009 3:-1e-009 8:-1.9405951e-009 
1 1:-9.9999998e-010 6:-1e-009 7:-1e-009 8:-1.5348642e-009 
1 1:-2e-008 6:-1e-009 7:-1e-009 8:-3.7574017e-009 
1 1:-9.9999998e-010 3:-1e-009 6:-1e-009 7:-2e-009 8:-7.9628754e-009 
1 1:-3.9999999e-009 2:-1e-009 3:-1e-009 6:-1e-009 7:-1e-009 8:-1.496492e-009 
1 1:-1.8e-008 3:-1e-009 7:-1e-009 8:-1.1122487e-009 
1 1:-2.4e-008 3:-1e-009 7:-2e-009 8:-6.9476232e-010 
1 1:-2.9999999e-008 3:-1e-009 7:-1e-009 8:-3.9437457e-007 
1 1:-7.9999999e-009 6:-1e-009 7:-1e-009 8:-2.0089027e-009 
1 1:-3.9999999e-009 3:-1e-009 6:-1e-009 7:-1e-009 8:-2.0650507e-009 
1 1:-5.9999999e-009 3:-1e-009 6:-1e-009 8:-1.397557e-009 
1 1:-1.2e-008 6:-1e-009 7:-1e-009 8:-5.2249328e-009 
1 1:-6.9999999e-009 6:-1e-009 7:-1e-009 8:-5.7380511e-010 
1 1:-2e-008 3:-1e-009 7:-2e-009 8:-1.5478394e-009 
1 1:-8.9999998e-009 6:-1e-009 7:-1e-009 8:-8.703627e-010 
1 1:-9.9999998e-009 3:-1e-009 6:-1e-009 7:-1e-009 8:-2.225107e-009 
1 1:-1.2e-008 2:-1e-009 3:-1e-009 7:-1e-009 8:-1.2867388e-009 
1 1:-8.9999998e-009 2:-1e-009 3:-1e-009 
1 1:-1.3e-008 6:-1e-009 8:-2.2379248e-009 
1 1:-1.2e-008 2:-1e-009 5:-1e-009 6:-1e-009 7:-2e-009 8:-1.2712366e-009 
1 1:-2.4e-008 3:-1e-009 5:-1e-009 8:-5.7380511e-010 
1 1:-6.9999999e-009 3:-1e-009 8:-3.2842374e-010 
1 1:-1.7e-008 5:-1e-009 6:-1e-009 8:-1.1125496e-009 
1 1:-2e-009 8:-1.2094955e-009 
1 1:-8.9999998e-009 3:-1e-009 8:-3.408258e-009 
1 1:-3.9999999e-009 3:-1e-009 5:-1e-009 7:-1e-009 8:-1.9576341e-009 
1 1:-1.4e-008 6:-1e-009 7:-2e-009 8:-4.974464e-009 
1 1:-2.6e-008 2:-1e-009 3:-1e-009 6:-1e-009 7:-3e-009 8:-4.210304e-009 
1 1:-9.9999998e-010 5:-1e-009 6:-1e-009 7:-2e-009 8:-5.5857517e-009 
1 1:-5.9999999e-009 3:-1e-009 5:-1e-009 6:-1e-009 7:-1e-009 8:-4.7726408e-009 
1 1:-2.3e-008 3:-1e-009 5:-1e-009 7:-1e-009 8:-6.4837815e-010 
1 1:-3.9999999e-009 3:-1e-009 5:-1e-009 7:-1e-009 8:-3.5662378e-009 
1 1:-2.4e-008 3:-1e-009 5:-1e-009 8:-7.777504e-009 
1 1:-2.7e-008 3:-1e-009 5:-1e-009 6:-1e-009 8:-1.3712753e-009 
1 3:-1e-009 6:-1e-009 8:-2.0104177e-009 
1 1:-2.2e-008 6:-1e-009 7:-2e-009 8:-7.9830311e-009 
1 1:-1.1e-008 3:-1e-009 7:-1e-009 8:-2.1070412e-009 
1 1:-2e-008 3:-1e-009 5:-1e-009 7:-2e-009 8:-3.9394807e-007 
1 1:-6.9999999e-009 6:-1e-009 7:-1e-009 8:-4.1016505e-009 
1 1:-2.1e-008 6:-1e-009 7:-2e-009 8:-9.8185242e-010 
1 1:-2.3e-008 3:-1e-009 7:-1e-009 8:-3.3345714e-009 
1 1:-2.3e-008 2:-1e-009 6:-1e-009 7:-1e-009 8:-3.5943279e-009 
1 1:-7.9999999e-009 5:-1e-009 6:-1e-009 7:-1e-009 8:-1.3618866e-009 
1 1:-2.9999999e-009 7:-1e-009 8:-1.1180824e-009 
1 1:-2.3e-008 3:-1e-009 7:-1e-009 8:-3.1094587e-009 
1 1:-2.4e-008 2:-1e-009 8:-1.2396309e-009 
1 1:-4.9999999e-009 3:-1e-009 7:-2e-009 8:-9.2271495e-010 
1 1:-2.9999999e-008 6:-1e-009 7:-1e-009 8:-2.896713e-009 
1 1:-2.9e-008 6:-1e-009 7:-1e-009 8:-3.9329086e-007 
1 1:-1.5e-008 2:-1e-009 3:-1e-009 7:-2e-009 8:-1.5118141e-009 
1 1:-1.1e-008 6:-1e-009 7:-1e-009 8:-2.2554766e-009 
1 1:-2.8e-008 2:-1e-009 3:-1e-009 5:-1e-009 7:-1e-009 8:-2.9550851e-010 
1 1:-1.2e-008 6:-1e-009 8:-1.4016698e-009 
1 1:-1.2e-008 3:-1e-009 5:-1e-009 8:-8.612443e-010 
1 1:-2.5e-008 6:-1e-009 7:-2e-009 8:-4.7741301e-010 
1 1:-2.2e-008 2:-1e-009 6:-1e-009 8:-2.3975095e-009 
1 1:-2.5e-008 5:-1e-009 6:-1e-009 8:-2.0685701e-009 
1 1:-2.9999999e-008 5:-1e-009 6:-1e-009 7:-1e-009 8:-3.9534169e-007 
1 1:-2.9999999e-009 2:-1e-009 7:-1e-009 8:-3.5695534e-009 
1 1:-3.0999999e-008 3:-1e-009 8:-2.896713e-009 
1 1:-2.2e-008 2:-1e-009 3:-1e-009 7:-2e-009 8:-1.2893161e-009 
1 1:-4.9999999e-009 5:-1e-009 6:-1e-009 8:-2.5372375e-009 
1 1:-5.9999999e-009 6:-1e-009 8:-3.1738248e-009 
1 1:-9.9999998e-010 8:-5.5857517e-009 
1 1:-3.9999999e-009 5:-1e-009 7:-3e-009 8:-1.3997106e-009 
1 1:-2.7e-008 6:-1e-009 8:-5.5857517e-009 
1 1:-2.7e-008 8:-3.9163135e-009 
1 1:-1.2e-008 6:-1e-009 7:-1e-009 8:-2.9005924e-009 
1 1:-2e-009 2:-1e-009 3:-1e-009 8:-7.9406307e-010 
1 1:-2e-009 5:-1e-009 7:-2e-009 8:-2.084874e-009 
1 1:-5.9999999e-009 6:-1e-009 8:-8.2218353e-010 
1 1:-3.0999999e-008 6:-1e-009 7:-1e-009 8:-1.8697123e-009 
1 1:-1.9e-008 6:-1e-009 8:-1.8001516e-009 
1 1:-4.9999999e-009 3:-1e-009 6:-1e-009 8:-3.9323556e-010 
1 1:-2.4e-008 6:-1e-009 7:-1e-009 8:-3.9492513e-007 
1 1:-5.9999999e-009 3:-1e-009 8:-3.9301457e-007 
1 1:-2.1e-008 3:-1e-009 8:-1.6819662e-009 
1 1:-8.9999998e-009 6:-1e-009 7:-1e-009 
-1 1:-4.9999999e-009 8:-1.6658878e-009 
-1 1:-1.8e-008 2:-1e-009 3:-1e-009 6:-1e-009 7:-1e-009 8:-1.3578438e-009 
-1 1:-2.9999999e-009 5:-1e-009 7:-2e-009 8:-3.9301457e-007 
-1 1:-1.6e-008 2:-1e-009 3:-1e-009 6:-1e-009 8:-2.7791938e-009 
-1 1:-2.5e-008 3:-1e-009 6:-1e-009 8:-1.7503772e-009 
-1 1:-1.2e-008 7:-1e-009 8:-6.8949891e-009 
-1 1:-1.5e-008 3:-1e-009 6:-1e-009 7:-1e-009 8:-1.9387084e-009 
-1 1:-3.0999999e-008 3:-1e-009 7:-3e-009 8:-1.1125496e-009 
-1 1:-3.1999999e-008 6:-1e-009 7:-3e-009 
-1 1:-2.3e-008 8:-2.3135231e-010 
-1 1:-2.9999999e-008 2:-1e-009 3:-1e-009 6:-1e-009 8:-5.6806417e-009 
-1 1:-6.9999999e-009 7:-1e-009 8:-7.9830311e-009 
-1 1:-1.4e-008 2:-1e-009 7:-1e-009 8:-1.5671757e-009 
-1 1:-2.9e-008 8:-1.4315017e-009 
-1 1:-2.1e-008 2:-1e-009 3:-1e-009 6:-1e-009 7:-2e-009 8:-2.3975095e-009 
-1 1:-6.9999999e-009 7:-1e-009 8:-1.4566744e-009 
-1 1:-1.2e-008 3:-1e-009 6:-1e-009 8:-3.1738248e-009 
-1 1:-1.4e-008 8:-2.4753019e-009 
-1 1:-8.9999998e-009 8:-9.586442e-010 
-1 1:-1.4e-008 8:-1.6819662e-009 
-1 1:-8.9999998e-009 5:-1e-009 6:-1e-009 7:-3e-009 8:-9.8956719e-010 
-1 1:-1.8e-008 3:-1e-009 6:-1e-009 8:-2.1807959e-009 
-1 1:-2.3e-008 5:-1e-009 7:-1e-009 8:-1.2264976e-009 
-1 1:-5.9999999e-009 2:-1e-009 7:-1e-009 8:-1.493325e-009 
-1 1:-2.9999999e-009 2:-1e-009 3:-1e-009 5:-1e-009 6:-1e-009 8:-1.7877472e-009 
-1 1:-2.3e-008 2:-1e-009 3:-1e-009 6:-1e-009 7:-1e-009 8:-1.8572679e-009 
-1 1:-2.2e-008 3:-1e-009 6:-1e-009 8:-1.4954298e-009 
-1 1:-2.9999999e-008 5:-1e-009 7:-1e-009 8:-1.2712366e-009 
-1 1:-3.1999999e-008 8:-5.7228369e-010 
-1 1:-2.3e-008 8:-2.2645834e-009 
-1 1:-7.9999999e-009 3:-1e-009 6:-1e-009 7:-1e-009 8:-6.2697068e-009 
-1 1:-9.9999998e-009 3:-1e-009 6:-1e-009 7:-1e-009 8:-3.8301327e-010 
-1 1:-2.4e-008 3:-1e-009 6:-1e-009 7:-1e-009 8:-1.2094955e-009 
-1 1:-9.9999998e-009 7:-1e-009 8:-6.3223131e-010 
-1 1:-1.9e-008 2:-1e-009 3:-1e-009 6:-1e-009 7:-1e-009 8:-2.2645834e-009 
-1 1:-7.9999999e-009 2:-1e-009 8:-1.3854929e-009 
-1 1:-1.3e-008 7:-1e-009 8:-8.2582962e-010 
-1 1:-2.9e-008 3:-1e-009 6:-1e-009 7:-1e-009 8:-3.942262e-007 
-1 1:-1.8e-008 3:-1e-009 6:-1e-009 8:-1.8523097e-009 
-1 1:-1.2e-008 8:-1.8572679e-009 
-1 1:-1.3e-008 3:-1e-009 6:-1e-009 8:-6.795479e-010 
-1 1:-1.9e-008 3:-1e-009 5:-1e-009 6:-1e-009 8:-2.7298318e-009 
-1 1:-2.9e-008 7:-1e-009 8:-1.8697123e-009 
-1 1:-2.6e-008 2:-1e-009 7:-1e-009 8:-5.6652824e-009 
-1 1:-2.3e-008 3:-1e-009 5:-1e-009 6:-1e-009 8:-3.9266428e-007 
-1 1:-2.3e-008 7:-1e-009 8:-1.0127167e-009 
-1 1:-3.0999999e-008 3:-1e-009 5:-1e-009 6:-1e-009 7:-2e-009 8:-7.4370535e-009 
-1 1:-1.2e-008 2:-1e-009 7:-1e-009 8:-7.8202896e-010 
-1 1:-1.6e-008 3:-1e-009 6:-1e-009 7:-1e-009 8:-1.7574392e-009 
-1 1:-2.9999999e-008 3:-1e-009 5:-1e-009 6:-1e-009 7:-1e-009 8:-5.5129125e-009 
-1 1:-2.9999999e-008 5:-1e-009 7:-1e-009 8:-1.5045891e-009 
-1 1:-4.9999999e-009 3:-1e-009 6:-1e-009 8:-8.2218353e-010 
-1 1:-2.3e-008 7:-1e-009 
-1 1:-1.6e-008 2:-1e-009 5:-1e-009 8:-3.9427375e-007 
-1 1:-7.9999999e-009 6:-1e-009 7:-3e-009 8:-1.1851192e-009 
-1 1:-1.6e-008 7:-1e-009 8:-3.5185824e-010 
-1 1:-3.0999999e-008 8:-1.1180824e-009 
-1 1:-1.6e-008 3:-1e-009 5:-1e-009 6:-1e-009 7:-3e-009 8:-5.9161453e-010 
-1 1:-2.1e-008 7:-4e-009 
-1 1:-7.9999999e-009 3:-1e-009 6:-1e-009 8:-1.5782105e-009 
-1 1:-1.4e-008 3:-1e-009 6:-1e-009 7:-4e-009 8:-3.942262e-007 
-1 1:-1.6e-008 8:-2.8023518e-010 
-1 1:-1.4e-008 3:-1e-009 6:-1e-009 8:-1.3067032e-009 
-1 1:-2.1e-008 7:-3e-009 8:-1.4566744e-009 
-1 1:-2.9999999e-008 2:-1e-009 5:-1e-009 6:-1e-009 7:-3e-009 8:-4.7818171e-009 
-1 1:-1.2e-008 7:-3e-009 8:-1.2867388e-009 
-1 1:-2.9999999e-009 7:-1e-009 8:-2.9237505e-009 
-1 1:-8.9999998e-009 3:-1e-009 5:-1e-009 6:-1e-009 8:-6.2550876e-009 
-1 1:-1.7e-008 3:-1e-009 6:-1e-009 7:-1e-009 8:-1.3536307e-009 
-1 1:-2.3e-008 2:-1e-009 3:-1e-009 6:-1e-009 7:-1e-009 8:-6.9476232e-010 
-1 1:-1.7e-008 2:-1e-009 7:-2e-009 8:-2.1807959e-009 
-1 1:-2.8e-008 7:-2e-009 8:-4.1772639e-009 
-1 1:-2.3e-008 7:-1e-009 8:-3.3089305e-009 
-1 1:-2.8e-008 3:-1e-009 6:-1e-009 8:-1.4126569e-010 
-1 1:-2.3e-008 7:-1e-009 8:-2.084874e-009 
-1 1:-2.6e-008 3:-1e-009 6:-1e-009 7:-1e-009 8:-9.7616659e-010 
-1 1:-7.9999999e-009 3:-1e-009 6:-1e-009 7:-2e-009 8:-3.5185824e-010 
-1 1:-1.7e-008 3:-1e-009 5:-1e-009 6:-1e-009 8:-1.8634421e-009 
-1 1:-2.9e-008 3:-1e-009 6:-1e-009 7:-1e-009 8:-1.2893161e-009 
-1 1:-1.9e-008 2:-1e-009 3:-1e-009 7:-3e-009 8:-1.5945528e-009 
-1 1:-1.5e-008 3:-1e-009 6:-1e-009 7:-1e-009 8:-1.2176101e-009 
-1 1:-1.9e-008 3:-1e-009 5:-1e-009 6:-1e-009 7:-2e-009 8:-1.8374132e-009 
-1 1:-2.3e-008 3:-1e-009 5:-1e-009 6:-1e-009 7:-1e-009 8:-1.6819662e-009 
-1 1:-6.9999999e-009 3:-1e-009 6:-1e-009 7:-1e-009 8:-9.2971307e-010 
-1 1:-1.5e-008 2:-1e-009 6:-1e-009 7:-4e-009 8:-2.0806042e-009 
-1 1:-1.2e-008 3:-1e-009 6:-1e-009 8:-1.5478394e-009 
-1 1:-8.9999998e-009 8:-4.2403887e-009 
-1 1:-3.9999999e-009 3:-1e-009 6:-1e-009 7:-3e-009 8:-9.5576498e-010 
-1 1:-2.9999999e-008 3:-1e-009 6:-1e-009 7:-1e-009 8:-1.9326778e-009 
-1 1:-1.3e-008 7:-2e-009 8:-6.268343e-010 
-1 1:-2.9999999e-008 3:-1e-009 6:-1e-009 8:-2.0589368e-009 
-1 1:-7.9999999e-009 8:-1.1402644e-009 
-1 1:-1.7e-008 2:-1e-009 3:-1e-009 6:-1e-009 8:-1.6102601e-009 
-1 1:-1.4e-008 5:-1e-009 8:-3.3230956e-009 
-1 1:-9.9999998e-009 2:-1e-009 3:-1e-009 5:-1e-009 6:-1e-009 7:-1e-009 8:-2.225107e-009 
-1 1:-2.8e-008 8:-6.9596436e-009 
-1 1:-6.9999999e-009 3:-1e-009 6:-1e-009 8:-7.3869584e-010 
-1 1:-2.9999999e-008 3:-1e-009 6:-1e-009 7:-2e-009 8:-1.3618866e-009 
-1 1:-2.7e-008 2:-1e-009 7:-1e-009 8:-6.2391518e-010 
-1 1:-2.5e-008 5:-1e-009 8:-2.7791938e-009 
-1 1:-1.6e-008 2:-1e-009 3:-1e-009 5:-1e-009 6:-1e-009 7:-4e-009 8:-1.3979851e-009 
-1 1:-2.9999999e-008 5:-1e-009 7:-1e-009 8:-9.9877522e-010 
-1 1:-1.8e-008 7:-3e-009 8:-3.9566632e-007 
-1 1:-1.4e-008 3:-1e-009 5:-1e-009 6:-1e-009 8:-5.2100793e-010 
-1 1:-2.6e-008 3:-1e-009 6:-1e-009 8:-3.1257886e-009 
-1 1:-7.9999999e-009 7:-1e-009 8:-7.6211114e-009 
-1 1:-2.8e-008 3:-1e-009 5:-1e-009 6:-1e-009 7:-1e-009 8:-3.5185824e-010 
-1 1:-6.9999999e-009 3:-1e-009 6:-1e-009 7:-1e-009 8:-2.1807959e-009 
-1 1:-1.4e-008 7:-3e-009 8:-1.5662551e-009 
-1 1:-6.9999999e-009 3:-1e-009 6:-1e-009 7:-1e-009 8:-3.1257886e-009 
-1 1:-1.1e-008 3:-1e-009 6:-1e-009 7:-1e-009 8:-1.4452216e-009 
-1 1:-3.0999999e-008 3:-1e-009 5:-1e-009 6:-1e-009 7:-2e-009 8:-6.0115195e-009 
-1 1:-1.6e-008 3:-1e-009 6:-1e-009 7:-1e-009 8:-2.0540133e-009 
-1 1:-1.6e-008 8:-2.3135231e-010 
-1 1:-2.5e-008 8:-3.1738248e-009 
-1 1:-9.9999998e-009 3:-1e-009 6:-1e-009 7:-2e-009 8:-3.63142e-010 
-1 1:-2.6e-008 8:-2.6791334e-009 
-1 1:-2.2e-008 7:-2e-009 8:-1.8044609e-009 
-1 1:-1.7e-008 3:-1e-009 6:-1e-009 7:-3e-009 8:-2.0089027e-009 
-1 1:-1.1e-008 3:-1e-009 6:-1e-009 7:-1e-009 8:-3.7550279e-010 
-1 1:-8.9999998e-009 8:-5.1076009e-010 
-1 1:-7.9999999e-009 8:-7.8969676e-010 
-1 1:-1.7e-008 8:-3.5662378e-009 
-1 1:-2.2e-008 2:-1e-009 3:-1e-009 6:-1e-009 8:-4.8045058e-009 
-1 1:-2.9999999e-009 3:-1e-009 6:-1e-009 8:-4.7741301e-010 
-1 1:-1.1e-008 3:-1e-009 5:-1e-009 7:-3e-009 8:-1.9126119e-009 
-1 1:-3.9999999e-009 3:-1e-009 5:-1e-009 6:-1e-009 7:-1e-009 8:-2.351816e-009 
-1 1:-1.7e-008 8:-1.1999665e-009 
-1 1:-2.5e-008 3:-1e-009 6:-1e-009 
-1 1:-4.9999999e-009 5:-1e-009 7:-2e-009 8:-3.1094587e-009 
-1 1:-1.5e-008 3:-1e-009 6:-1e-009 8:-1.9108812e-009 
-1 1:-1.7e-008 3:-1e-009 5:-1e-009 6:-1e-009 7:-1e-009 8:-2.3127326e-009 
-1 1:-2.9999999e-008 8:-2.231251e-010 
-1 1:-8.9999998e-009 3:-1e-009 5:-1e-009 6:-1e-009 8:-1.2470211e-009 
-1 1:-1.9e-008 8:-7.4119669e-010 
-1 1:-2.7e-008 3:-1e-009 6:-1e-009 7:-1e-009 8:-2.9550851e-010 
-1 1:-1.7e-008 3:-1e-009 6:-1e-009 8:-3.2531964e-010 
-1 1:-1.1e-008 3:-1e-009 6:-1e-009 7:-1e-009 8:-3.4568927e-009 
-1 1:-2.9999999e-008 3:-1e-009 6:-1e-009 7:-1e-009 8:-3.6368357e-009 
-1 1:-8.9999998e-009 8:-3.2531964e-010 
-1 1:-1.5e-008 2:-1e-009 7:-3e-009 8:-6.5102704e-009 
-1 1:-1.5e-008 5:-1e-009 7:-1e-009 8:-2.7740483e-009 
-1 1:-2.1e-008 7:-1e-009 8:-3.9745554e-007 
-1 1:-3.1999999e-008 8:-2.084874e-009 
-1 1:-1.6e-008 2:-1e-009 3:-1e-009 6:-1e-009 8:-1.9126119e-009 
-1 1:-1.9e-008 2:-1e-009 3:-1e-009 6:-1e-009 7:-1e-009 8:-3.63142e-010 
-1 1:-2.9e-008 2:-1e-009 7:-1e-009 8:-1.5945528e-009 
-1 1:-1.3e-008 7:-1e-009 8:-1.1390365e-009 
-1 1:-9.9999998e-009 3:-1e-009 6:-1e-009 8:-5.9161453e-010 
-1 1:-1.4e-008 7:-1e-009 8:-2.9550851e-010 
-1 1:-2e-008 3:-1e-009 6:-1e-009 8:-2.4882986e-009 
-1 1:-2.5e-008 3:-1e-009 6:-1e-009 7:-1e-009 8:-6.581761e-010 
-1 1:-1.8e-008 3:-1e-009 5:-1e-009 6:-1e-009 7:-1e-009 8:-1.1390365e-009 
-1 1:-5.9999999e-009 3:-1e-009 5:-1e-009 6:-1e-009 7:-1e-009 8:-1.2851978e-009 
-1 1:-1.1e-008 8:-1.4440483e-009 
-1 1:-1.4e-008 3:-1e-009 5:-1e-009 6:-1e-009 7:-1e-009 8:-1.7249006e-009 
-1 1:-2.1e-008 7:-1e-009 
-1 1:-1.8e-008 3:-1e-009 6:-1e-009 7:-1e-009 8:-1.5348642e-009 
-1 1:-6.9999999e-009 3:-1e-009 6:-1e-009 
-1 1:-2.6e-008 3:-1e-009 6:-1e-009 7:-1e-009 
-1 1:-1.9e-008 3:-1e-009 6:-1e-009 7:-1e-009 8:-6.2980528e-010 
-1 1:-3.1999999e-008 3:-1e-009 6:-1e-009 8:-1.1180824e-009 
-1 1:-1.7e-008 7:-1e-009 8:-7.7518187e-010 
-1 1:-2e-008 3:-1e-009 6:-1e-009 8:-1.7877472e-009 
-1 1:-2.1e-008 2:-1e-009 5:-1e-009 8:-9.4024718e-010 
-1 1:-2.2e-008 7:-1e-009 8:-1.6658878e-009 
-1 1:-2.9e-008 3:-1e-009 6:-1e-009 8:-1.5945528e-009 
-1 1:-1.2e-008 7:-2e-009 8:-1.2176101e-009 
-1 1:-1.1e-008 2:-1e-009 3:-1e-009 6:-1e-009 7:-2e-009 
-1 1:-1.4e-008 8:-2.5343025e-009 
-1 1:-9.9999998e-010 2:-1e-009 7:-1e-009 8:-1.493325e-009 
-1 1:-8.9999998e-009 3:-1e-009 6:-1e-009 7:-1e-009 8:-3.9365259e-007 
-1 1:-2.8e-008 8:-2.6435597e-009 
-1 1:-9.9999998e-009 3:-1e-009 6:-1e-009 
-1 1:-9.9999998e-009 7:-2e-009 8:-3.9519035e-007 
-1 1:-2.1e-008 2:-1e-009 8:-3.9480912e-007 
-1 1:-2.9e-008 7:-5e-009 8:-1.7877472e-009 
-1 1:-2e-009 2:-1e-009 3:-1e-009 6:-1e-009 7:-1e-009 8:-4.4199552e-009 
-1 1:-1.6e-008 2:-1e-009 3:-1e-009 6:-1e-009 8:-3.9566632e-007 
-1 1:-2.5e-008 3:-1e-009 6:-1e-009 7:-1e-009 8:-3.8301327e-010 
-1 1:-2.9999999e-008 3:-1e-009 5:-1e-009 7:-4e-009 8:-1.5862162e-009 
-1 1:-1.3e-008 3:-1e-009 6:-1e-009 7:-1e-009 8:-1.8044609e-009 
-1 1:-2.7e-008 3:-1e-009 6:-1e-009 7:-2e-009 8:-9.4232421e-009 
-1 1:-2.2e-008 7:-1e-009 8:-2.0957049e-009 
-1 1:-1.2e-008 3:-1e-009 6:-1e-009 7:-2e-009 8:-3.1094587e-009 
-1 1:-1.5e-008 5:-1e-009 8:-4.7818171e-009 
-1 1:-2.7e-008 8:-7.3908277e-010 
-1 1:-1.2e-008 3:-1e-009 6:-1e-009 7:-1e-009 8:-1.3925164e-009 
-1 1:-2.9999999e-009 8:-8.2218353e-010 
-1 1:-9.9999998e-009 3:-1e-009 6:-1e-009 7:-2e-009 8:-2.7740483e-009 
-1 1:-2.1e-008 3:-1e-009 6:-1e-009 7:-2e-009 8:-4.1772639e-009 
-1 1:-2.2e-008 3:-1e-009 5:-1e-009 6:-1e-009 7:-2e-009 8:-5.8654074e-009 
-1 1:-3.0999999e-008 2:-1e-009 7:-2e-009 8:-6.2550876e-009 
-1 1:-1.6e-008 2:-1e-009 5:-1e-009 8:-2.3135231e-010 
-1 1:-1.3e-008 3:-1e-009 5:-1e-009 6:-1e-009 7:-1e-009 8:-5.6449451e-009 
-1 1:-9.9999998e-009 8:-1.7851622e-009 
-1 1:-1.3e-008 7:-2e-009 8:-1.8697123e-009 
-1 1:-1.2e-008 5:-1e-009 8:-2.5725453e-009 
-1 1:-3.1999999e-008 7:-3e-009 8:-5.1076009e-010 
-1 1:-2.5e-008 2:-1e-009 7:-1e-009 8:-1.7648302e-009 
-1 1:-6.9999999e-009 3:-1e-009 6:-1e-009 7:-2e-009 8:-2.8534189e-009 
