svm_type c_svc
kernel_type sigmoid
gamma 0.142857
coef0 0
nr_class 16
total_sv 474
rho 1 -1 -1 -1 -1 -1 -1 -1 -1 -1 -1 -1 -1 -1 -1 -1 -1 -1 -1 -1 -1 -1 -1 -1 -1 -1 -1 -1 -1 1 1.66533e-016 1 1 1 1 1.66533e-016 -1 1.11022e-016 -1 -1 -1 -1 -1 -1 -1 -1 -1 -1 -1 -1 -1 -1 -1 -1 1 1 1 1 -5.55112e-017 -1 -1.11022e-016 -1 -1 -1 -1 -1 -1 1 -1 -1 -1 -1 -1 -1 -1 1 1 -1 -1 -1 -1 -1 -1 -1 1 -1 -1 -1 -1 -1 -1 -1 -1 -1 -1 -1 -1 -1 -1 -1 -5.55112e-017 -1 -1 -1 -1 1 -1 -1 -1 -1 -1 -1 -1 -1 0 -1 -1 -1 -1 0
label 0 1 395 2 393 4 6 5 3 7 392 394 9 397 391 396
nr_sv 122 133 9 76 9 21 15 16 46 9 3 9 2 2 1 1
SV
1 0 0 0 0 0 0 0 0 0 0 0 0 0 0 1:-2.1e-008 2:-1e-009 6:-1e-009 
1 0 0 0 0 0 0 0 0 0 0 0 0 0 0 1:-5.9999999e-009 6:-1e-009 
1 0 0 0 0 0 0 0 0 0 0 0 0 0 0 1:-8.9999998e-009 2:-1e-009 3:-1e-009 7:-2e-009 
1 0 0 0 0 0 0 0 0 0 0 0 0 0 0 1:-1.6e-008 6:-1e-009 
1 0 0 0 0 0 0 0 0 0 0 0 0 0 0 1:-3.1999999e-008 6:-1e-009 7:-3e-009 
1 0 0 0 0 0 0 0 0 0 0 0 0 0 0 1:-1.1e-008 6:-1e-009 7:-2e-009 
1 0 0 0 0 0 0 0 0 0 0 0 0 0 0 1:-2.3e-008 
1 0 0 0 0 0 0 0 0 0 0 0 0 0 0 1:-2.1e-008 6:-1e-009 
1 0 0 0 0 0 0 0 0 0 0 0 0 0 0 1:-9.9999998e-009 3:-1e-009 
1 0 0 0 0 0 0 0 0 0 0 0 0 0 0 1:-8.9999998e-009 6:-1e-009 
1 0 0 0 0 0 0 0 0 0 0 0 0 0 0 1:-9.9999998e-009 6:-1e-009 7:-2e-009 
1 0 0 0 0 0 0 0 0 0 0 0 0 0 0 1:-5.9999999e-009 3:-1e-009 6:-1e-009 
1 0 0 0 0 0 0 0 0 0 0 0 0 0 0 1:-8.9999998e-009 
1 0 0 0 0 0 0 0 0 0 0 0 0 0 0 1:-3.0999999e-008 6:-1e-009 
1 0 0 0 0 0 0 0 0 0 0 0 0 0 0 1:-8.9999998e-009 5:-1e-009 6:-1e-009 7:-3e-009 
1 0 0 0 0 0 0 0 0 0 0 0 0 0 0 1:-1.8e-008 3:-1e-009 7:-1e-009 
1 0 0 0 0 0 0 0 0 0 0 0 0 0 0 1:-2.9999999e-008 3:-1e-009 7:-1e-009 
1 0 0 0 0 0 0 0 0 0 0 0 0 0 0 1:-3.1999999e-008 6:-1e-009 
1 0 0 0 0 0 0 0 0 0 0 0 0 0 0 1:-3.1999999e-008 
1 0 0 0 0 0 0 0 0 0 0 0 0 0 0 1:-9.9999998e-009 3:-1e-009 6:-1e-009 7:-1e-009 
1 0 0 0 0 0 0 0 0 0 0 0 0 0 0 3:-1e-009 5:-1e-009 6:-1e-009 7:-1e-009 
1 0 0 0 0 0 0 0 0 0 0 0 0 0 0 1:-9.9999998e-009 7:-1e-009 
1 0 0 0 0 0 0 0 0 0 0 0 0 0 0 1:-8.9999998e-009 5:-1e-009 6:-1e-009 7:-2e-009 
1 0 0 0 0 0 0 0 0 0 0 0 0 0 0 1:-1.3e-008 7:-1e-009 
1 0 0 0 0 0 0 0 0 0 0 0 0 0 0 1:-8.9999998e-009 6:-1e-009 7:-1e-009 
1 0 0 0 0 0 0 0 0 0 0 0 0 0 0 1:-1.3e-008 3:-1e-009 6:-1e-009 
1 0 0 0 0 0 0 0 0 0 0 0 0 0 0 1:-3.9999999e-009 3:-1e-009 7:-1e-009 
1 0 0 0 0 0 0 0 0 0 0 0 0 0 0 1:-1.9e-008 3:-1e-009 5:-1e-009 
1 0 0 0 0 0 0 0 0 0 0 0 0 0 0 1:-9.9999998e-010 5:-1e-009 7:-1e-009 
1 0 0 0 0 0 0 0 0 0 0 0 0 0 0 1:-2e-008 3:-1e-009 
1 0 0 0 0 0 0 0 0 0 0 0 0 0 0 1:-1.2e-008 2:-1e-009 7:-1e-009 
1 0 0 0 0 0 0 0 0 0 0 0 0 0 0 1:-1.8e-008 3:-1e-009 
1 0 0 0 0 0 0 0 0 0 0 0 0 0 0 1:-1.3e-008 6:-1e-009 7:-1e-009 
1 0 0 0 0 0 0 0 0 0 0 0 0 0 0 1:-4.9999999e-009 3:-1e-009 6:-1e-009 
1 0 0 0 0 0 0 0 0 0 0 0 0 0 0 1:-2.3e-008 7:-1e-009 
1 0 0 0 0 0 0 0 0 0 0 0 0 0 0 1:-2.2e-008 5:-1e-009 6:-1e-009 7:-1e-009 
1 0 0 0 0 0 0 0 0 0 0 0 0 0 0 1:-1.6e-008 7:-1e-009 
1 0 0 0 0 0 0 0 0 0 0 0 0 0 0 1:-1.6e-008 3:-1e-009 5:-1e-009 6:-1e-009 7:-3e-009 
1 0 0 0 0 0 0 0 0 0 0 0 0 0 0 1:-8.9999998e-009 6:-1e-009 7:-1e-009 
1 0 0 0 0 0 0 0 0 0 0 0 0 0 0 1:-2.1e-008 7:-4e-009 
1 0 0 0 0 0 0 0 0 0 0 0 0 0 0 1:-2e-009 2:-1e-009 3:-1e-009 6:-1e-009 7:-1e-009 
1 0 0 0 0 0 0 0 0 0 0 0 0 0 0 1:-1.6e-008 
1 0 1 0 0 0 0 0 0 0 0 0 0 0 0 1:-5.9999999e-009 
1 0 0 0 0 0 0 0 0 0 0 0 0 0 0 1:-1.7e-008 6:-1e-009 7:-1e-009 
1 0 1 0 0 0 0 0 0 0 0 0 0 0 0 1:-9.9999998e-010 2:-1e-009 3:-1e-009 7:-4e-009 
1 0 0 0 0 0 0 0 0 0 0 0 0 0 0 1:-2.3e-008 2:-1e-009 3:-1e-009 6:-1e-009 7:-1e-009 
1 0 0 0 0 0 0 0 0 0 0 0 0 0 0 1:-2.8e-008 3:-1e-009 6:-1e-009 
1 0 0 0 0 0 0 0 0 0 0 0 0 0 0 1:-2.6e-008 3:-1e-009 6:-1e-009 7:-1e-009 
1 0 1 0 0 0 0 0 0 0 0 0 0 0 0 1:-7.9999999e-009 3:-1e-009 6:-1e-009 7:-2e-009 
1 0 1 0 0 0 0 0 0 0 0 0 0 0 0 1:-2.9e-008 2:-1e-009 6:-1e-009 
1 0 1 0 0 0 0 0 0 0 0 0 0 0 0 1:-2.7e-008 3:-1e-009 7:-2e-009 
1 0 1 0 0 0 0 0 0 0 0 0 0 0 0 1:-6.9999999e-009 3:-1e-009 6:-1e-009 7:-1e-009 
1 0 1 0 0 0 0 0 0 0 0 0 0 0 0 1:-2.2e-008 6:-1e-009 7:-2e-009 
1 0 1 0 0 0 0 0 0 0 0 0 0 0 0 1:-3.9999999e-009 6:-1e-009 7:-1e-009 
1 0 1 0 0 0 0 0 0 0 0 0 0 0 0 1:-1.6e-008 5:-1e-009 6:-1e-009 
1 0 1 0 0 0 0 0 0 0 0 0 0 0 0 1:-3.9999999e-009 3:-1e-009 6:-1e-009 7:-3e-009 
1 0 1 0 0 0 0 0 0 0 0 0 0 0 0 1:-2.9e-008 6:-1e-009 7:-2e-009 
1 0 1 0 0 0 0 0 0 0 0 0 0 0 0 1:-3.9999999e-009 6:-1e-009 7:-1e-009 
1 0 1 0 0 0 0 0 0 0 0 0 0 0 0 1:-1.3e-008 7:-2e-009 
1 0 1 0 0 0 0 0 0 0 0 0 0 0 0 1:-9.9999998e-010 2:-1e-009 5:-1e-009 6:-1e-009 
1 0 1 0 0 0 0 0 0 0 0 0 0 0 0 1:-2e-008 2:-1e-009 3:-1e-009 
1 0 1 0 0 0 0 0 0 0 0 0 0 0 0 1:-2.9999999e-008 5:-1e-009 6:-1e-009 
1 0 1 0 0 0 0 0 0 0 0 0 0 0 0 1:-6.9999999e-009 3:-1e-009 6:-1e-009 
1 0 1 0 0 0 0 0 0 0 0 0 0 0 0 1:-2.7e-008 2:-1e-009 7:-1e-009 
1 0 1 0 0 0 0 0 0 0 0 0 0 0 0 1:-2.9999999e-008 5:-1e-009 7:-1e-009 
1 0 1 0 0 0 0 0 0 0 0 0 0 0 0 1:-1.4e-008 3:-1e-009 5:-1e-009 6:-1e-009 
1 0 1 0 0 0 0 0 0 0 0 0 0 0 0 1:-2.1e-008 5:-1e-009 6:-1e-009 7:-2e-009 
1 0 1 0 0 0 0 0 0 0 0 0 0 0 0 1:-2.8e-008 3:-1e-009 5:-1e-009 6:-1e-009 7:-1e-009 
1 0 1 0 0 0 0 0 0 0 0 0 0 0 0 1:-2.6e-008 2:-1e-009 6:-1e-009 7:-1e-009 
1 0 1 0 0 0 0 0 0 0 0 0 0 0 0 1:-9.9999998e-009 3:-1e-009 6:-1e-009 7:-1e-009 
1 0 1 0 0 0 0 0 0 0 0 0 0 0 0 1:-9.9999998e-010 7:-2e-009 
1 0 1 0 0 0 0 0 0 0 0 0 0 0 0 1:-1.6e-008 
1 0 1 0 0 0 0 0 0 0 0 0 0 0 0 1:-9.9999998e-009 3:-1e-009 6:-1e-009 7:-2e-009 
1 0 1 0 0 0 0 0 0 0 0 0 0 0 0 1:-3.1999999e-008 5:-1e-009 6:-1e-009 7:-2e-009 
1 0 1 0 0 0 0 0 0 0 0 0 0 0 0 1:-1.1e-008 3:-1e-009 6:-1e-009 7:-1e-009 
1 0 1 0 0 0 0 0 0 0 0 0 0 0 0 1:-8.9999998e-009 
1 0 1 0 0 0 0 1 0 0 0 0 0 0 0 1:-7.9999999e-009 
1 0 1 0 0 0 0 1 0 0 0 0 0 0 0 6:-1e-009 7:-1e-009 
1 0 1 0 0 0 0 1 0 0 0 0 0 0 0 1:-2.9999999e-009 3:-1e-009 6:-1e-009 
1 0 1 0 0 0 0 1 0 0 0 0 0 0 0 1:-2.5e-008 3:-1e-009 6:-1e-009 
1 0 1 0 0 0 0 1 0 0 0 0 0 0 0 1:-1.5e-008 3:-1e-009 5:-1e-009 7:-1e-009 
1 0 1 0 0 0 0 1 0 0 0 0 0 0 0 1:-2.9999999e-008 
1 0 1 0 0 0 0 1 0 0 0 0 0 0 0 1:-1.9e-008 
1 0 1 0 0 0 0 1 0 0 0 0 0 0 0 1:-3.0999999e-008 5:-1e-009 7:-1e-009 
1 0 1 0 0 0 0 1 0 0 0 0 0 0 0 1:-1.5e-008 3:-1e-009 
1 0 1 0 0 0 0 1 0 0 0 0 0 0 0 1:-2.9999999e-009 2:-1e-009 3:-1e-009 7:-1e-009 
1 0 1 0 0 0 0 1 0 0 0 0 0 0 0 1:-2.7e-008 3:-1e-009 6:-1e-009 7:-1e-009 
1 0 1 0 0 0 0 1 0 0 0 0 0 0 0 1:-1.7e-008 3:-1e-009 6:-1e-009 
1 0 1 0 0 0 0 1 0 0 0 0 0 0 0 1:-2.4e-008 3:-1e-009 7:-2e-009 
1 0 1 0 0 0 0 1 0 0 0 0 0 0 0 1:-8.9999998e-009 
1 0 1 0 0 0 0 1 0 0 0 0 0 0 0 1:-6.9999999e-009 6:-1e-009 7:-1e-009 
1 0 1 0 0 0 0 1 0 0 0 0 0 0 0 1:-8.9999998e-009 6:-1e-009 7:-1e-009 
1 0 1 0 0 0 0 1 0 0 0 0 0 0 0 1:-8.9999998e-009 2:-1e-009 3:-1e-009 
1 0 1 0 0 0 0 1 0 0 0 0 0 0 0 1:-2.4e-008 3:-1e-009 5:-1e-009 
1 0 1 0 0 0 0 1 0 0 0 0 0 0 0 1:-6.9999999e-009 3:-1e-009 
1 0 1 0 0 0 0 1 0 0 0 0 0 0 0 1:-1.9e-008 2:-1e-009 3:-1e-009 6:-1e-009 7:-1e-009 
1 0 1 0 0 0 0 1 0 0 0 0 0 0 0 1:-9.9999998e-009 3:-1e-009 6:-1e-009 
1 0 1 0 0 0 0 1 0 0 0 0 0 0 0 1:-1.4e-008 7:-1e-009 
1 0 1 0 0 0 0 1 0 0 0 0 0 0 0 1:-2.5e-008 3:-1e-009 6:-1e-009 7:-1e-009 
1 0 1 0 0 0 0 1 0 0 0 0 0 0 0 1:-2.3e-008 3:-1e-009 5:-1e-009 7:-1e-009 
1 0 1 0 0 0 0 1 0 0 0 0 0 0 0 1:-2.1e-008 7:-1e-009 
1 0 1 0 1 0 0 1 0 0 0 0 0 0 0 1:-6.9999999e-009 3:-1e-009 6:-1e-009 
1 0 1 0 1 0 0 1 0 0 0 0 0 0 0 1:-2.6e-008 3:-1e-009 6:-1e-009 7:-1e-009 
1 0 1 0 1 0 0 1 0 0 0 0 0 0 0 1:-2.1e-008 6:-1e-009 7:-2e-009 
1 0 1 0 1 0 0 1 0 0 0 0 0 0 0 1:-1.9e-008 3:-1e-009 6:-1e-009 7:-1e-009 
1 0 1 0 1 0 0 1 0 0 0 0 0 0 0 1:-1.7e-008 7:-1e-009 
1 0 1 0 1 0 1 1 0 0 0 0 0 0 0 1:-2.1e-008 2:-1e-009 5:-1e-009 
1 0 1 0 1 1 1 1 0 0 0 0 0 0 0 1:-1.1e-008 2:-1e-009 3:-1e-009 6:-1e-009 7:-2e-009 
1 0 1 0 1 1 1 1 0 0 0 0 0 0 0 1:-9.9999998e-009 3:-1e-009 6:-1e-009 
1 0 1 0 1 1 1 1 0 0 0 0 0 0 0 1:-4.9999999e-009 3:-1e-009 7:-2e-009 
1 0 1 0 1 1 1 1 0 0 0 0 0 0 0 1:-2.5e-008 3:-1e-009 6:-1e-009 7:-1e-009 
1 0 1 0 1 1 1 1 0 0 0 0 0 0 0 1:-2.8e-008 2:-1e-009 3:-1e-009 5:-1e-009 7:-1e-009 
1 0 1 0 1 1 1 1 0 0 0 0 0 0 0 1:-1.2e-008 3:-1e-009 5:-1e-009 
1 1 1 1 1 1 1 1 1 0 1 0 0 0 0 1:-2.5e-008 6:-1e-009 7:-2e-009 
1 1 1 1 1 1 1 1 1 0 1 0 0 0 0 1:-2.7e-008 
1 1 1 1 1 1 1 1 1 0 1 0 0 0 0 1:-2.9999999e-009 
1 1 1 1 1 1 1 1 1 0 1 0 0 0 0 1:-2e-009 2:-1e-009 3:-1e-009 
1 1 1 1 1 1 1 1 1 0 1 0 0 0 0 1:-5.9999999e-009 6:-1e-009 
1 1 1 1 1 1 1 1 1 0 1 0 0 0 0 1:-1.6e-008 2:-1e-009 5:-1e-009 
1 1 1 1 1 1 1 1 1 1 1 0 0 0 0 1:-4.9999999e-009 3:-1e-009 6:-1e-009 
1 1 1 1 1 1 1 1 1 1 1 1 1 0 0 1:-3.1999999e-008 7:-3e-009 
1 1 1 1 1 1 1 1 1 1 1 1 1 1 1 1:-8.9999998e-009 6:-1e-009 7:-1e-009 
-1 0 0 0 0 0 0 0 0 0 0 0 0 0 0 1:-4.9999999e-009 
-1 0 0 0 0 0 0 0 0 0 0 0 0 0 0 1:-3.1999999e-008 5:-1e-009 6:-1e-009 7:-2e-009 
-1 0 0 0 0 0 0 0 0 0 0 0 0 0 0 1:-1.8e-008 2:-1e-009 3:-1e-009 6:-1e-009 7:-1e-009 
-1 0 0 0 0 0 0 0 0 0 0 0 0 0 0 1:-8.9999998e-009 5:-1e-009 6:-1e-009 
-1 0 0 0 0 0 0 0 0 0 0 0 0 0 0 1:-2.1e-008 3:-1e-009 7:-1e-009 
-1 0 0 0 0 0 0 0 0 0 0 0 0 0 0 1:-2.5e-008 3:-1e-009 6:-1e-009 
-1 0 0 0 0 0 0 0 0 0 0 0 0 0 0 1:-3.0999999e-008 3:-1e-009 7:-3e-009 
-1 0 0 0 0 0 0 0 0 0 0 0 0 0 0 1:-1.5e-008 3:-1e-009 5:-1e-009 7:-1e-009 
-1 0 0 0 0 0 0 0 0 0 0 0 0 0 0 1:-2e-009 3:-1e-009 7:-3e-009 
-1 0 0 0 0 0 0 0 0 0 0 0 0 0 0 1:-5.9999999e-009 3:-1e-009 6:-1e-009 7:-1e-009 
-1 0 0 0 0 0 0 0 0 0 0 0 0 0 0 1:-6.9999999e-009 7:-1e-009 
-1 0 0 0 0 0 0 0 0 0 0 0 0 0 0 1:-7.9999999e-009 3:-1e-009 5:-1e-009 6:-1e-009 
-1 0 0 0 0 0 0 0 0 0 0 0 0 0 0 1:-2.4e-008 3:-1e-009 7:-1e-009 
-1 0 0 0 0 0 0 0 0 0 0 0 0 0 0 1:-2.3e-008 5:-1e-009 7:-1e-009 
-1 0 0 0 0 0 0 0 0 0 0 0 0 0 0 3:-1e-009 5:-1e-009 6:-1e-009 7:-2e-009 
-1 0 0 0 0 0 0 0 0 0 0 0 0 0 0 1:-2.2e-008 3:-1e-009 6:-1e-009 
-1 0 0 0 0 0 0 0 0 0 0 0 0 0 0 1:-2.9999999e-008 5:-1e-009 7:-1e-009 
-1 0 0 0 0 0 0 0 0 0 0 0 0 0 0 1:-2.4e-008 3:-1e-009 6:-1e-009 7:-1e-009 
-1 0 0 0 0 0 0 0 0 0 0 0 0 0 0 1:-2.9999999e-009 3:-1e-009 6:-1e-009 
-1 0 0 0 0 0 0 0 0 0 0 0 0 0 0 1:-7.9999999e-009 2:-1e-009 
-1 0 0 0 0 0 0 0 0 0 0 0 0 0 0 1:-1.6e-008 6:-1e-009 
-1 0 0 0 0 0 0 0 0 0 0 0 0 0 0 1:-1.8e-008 3:-1e-009 6:-1e-009 
-1 0 0 0 0 0 0 0 0 0 0 0 0 0 0 1:-1.2e-008 
-1 0 0 0 0 0 0 0 0 0 0 0 0 0 0 1:-1.9e-008 3:-1e-009 5:-1e-009 
-1 0 0 0 0 0 0 0 0 0 0 0 0 0 0 1:-2.6e-008 3:-1e-009 6:-1e-009 7:-1e-009 
-1 0 0 0 0 0 0 0 0 0 0 0 0 0 0 1:-7.9999999e-009 5:-1e-009 6:-1e-009 
-1 0 0 0 0 0 0 0 0 0 0 0 0 0 0 1:-2.3e-008 7:-1e-009 
-1 0 0 0 0 0 0 0 0 0 0 0 0 0 0 1:-1.6e-008 3:-1e-009 6:-1e-009 7:-1e-009 
-1 0 0 0 0 0 0 0 0 0 0 0 0 0 0 1:-2.5e-008 
-1 0 0 0 0 0 0 0 0 0 0 0 0 0 0 1:-2.9999999e-008 5:-1e-009 7:-1e-009 
-1 0 0 0 0 0 0 0 0 0 0 0 0 0 0 1:-2.9e-008 3:-1e-009 7:-1e-009 
-1 0 0 0 0 0 0 0 0 0 0 0 0 0 0 1:-7.9999999e-009 6:-1e-009 7:-3e-009 
-1 0 0 0 0 0 0 0 0 0 0 0 0 0 0 1:-3.0999999e-008 
-1 0 0 0 0 0 0 0 0 0 0 0 0 0 0 1:-7.9999999e-009 6:-1e-009 
-1 0 0 0 0 0 0 0 0 0 0 0 0 0 0 1:-7.9999999e-009 3:-1e-009 6:-1e-009 
-1 0 0 0 0 0 0 0 0 0 0 0 0 0 0 1:-1.4e-008 3:-1e-009 6:-1e-009 
-1 0 0 0 0 0 0 0 0 0 0 0 0 0 0 1:-1.2e-008 2:-1e-009 3:-1e-009 7:-1e-009 
-1 0 0 0 0 0 0 0 0 0 0 0 0 0 0 1:-2.1e-008 7:-3e-009 
-1 0 0 0 0 0 0 0 0 0 0 0 0 0 0 1:-1.2e-008 7:-3e-009 
-1 0 0 0 0 0 0 0 0 0 0 0 0 0 0 1:-3.1999999e-008 6:-1e-009 
-1 0 0 0 0 0 0 0 0 0 0 0 0 0 0 1:-1.7e-008 3:-1e-009 6:-1e-009 7:-1e-009 
-1 0 0 0 0 0 0 0 0 0 0 0 0 0 0 1:-3.9999999e-009 3:-1e-009 7:-2e-009 
-1 0 0 0 0 0 0 0 0 0 0 0 0 0 0 6:-1e-009 7:-1e-009 
-1 0 0 0 0 0 0 0 0 0 0 0 0 0 0 1:-2.2e-008 2:-1e-009 3:-1e-009 7:-1e-009 
-1 0 0 0 0 0 0 0 0 0 0 0 0 0 0 1:-2e-009 2:-1e-009 7:-1e-009 
-1 0 0 0 0 0 0 0 0 0 0 0 0 0 0 1:-2e-009 3:-1e-009 7:-2e-009 
-1 0 0 0 0 0 0 0 0 0 0 0 0 0 0 1:-2.9e-008 3:-1e-009 6:-1e-009 7:-1e-009 
-1 0 0 0 0 0 0 0 0 0 0 0 0 0 0 1:-1.5e-008 3:-1e-009 6:-1e-009 7:-1e-009 
-1 0 0 0 0 0 0 0 0 0 0 0 0 0 0 1:-6.9999999e-009 2:-1e-009 5:-1e-009 6:-1e-009 7:-1e-009 
-1 0 0 0 0 0 0 0 0 0 0 0 0 0 0 1:-2.5e-008 5:-1e-009 6:-1e-009 
-1 0 0 0 0 0 0 0 0 0 0 0 0 0 0 1:-3.9999999e-009 3:-1e-009 6:-1e-009 
-1 0 0 0 0 0 0 0 0 0 0 0 0 0 0 1:-4.9999999e-009 3:-1e-009 6:-1e-009 7:-2e-009 
-1 0 0 0 0 0 0 0 0 0 0 0 0 0 0 1:-2.7e-008 7:-2e-009 
-1 0 0 0 0 0 0 0 0 0 0 0 0 0 0 1:-2.3e-008 3:-1e-009 5:-1e-009 6:-1e-009 7:-1e-009 
-1 0 0 0 0 0 0 0 0 0 0 0 0 0 0 1:-1.2e-008 3:-1e-009 6:-1e-009 
-1 0 0 0 0 0 0 0 0 0 0 0 0 0 0 1:-4.9999999e-009 3:-1e-009 
-1 0 1 0 0 0 0 0 0 0 0 0 0 0 0 1:-8.9999998e-009 3:-1e-009 5:-1e-009 7:-2e-009 
-1 0 1 0 0 0 0 0 0 0 0 0 0 0 0 1:-9.9999998e-009 3:-1e-009 
-1 0 0 0 0 0 0 0 0 0 0 0 0 0 0 1:-2.9999999e-008 3:-1e-009 6:-1e-009 7:-1e-009 
-1 0 1 0 0 0 0 0 0 0 0 0 0 0 0 1:-2.4e-008 3:-1e-009 7:-1e-009 
-0 0 1 0 0 0 0 0 0 0 0 0 0 0 0 1:-1.3e-008 6:-1e-009 
-1 0 1 0 0 0 0 0 0 0 0 0 0 0 0 1:-7.9999999e-009 
-0 0 1 0 0 0 0 0 0 0 0 0 0 0 0 1:-1.7e-008 2:-1e-009 3:-1e-009 6:-1e-009 
-1 0 1 0 0 0 0 0 0 0 0 0 0 0 0 1:-2.9999999e-008 3:-1e-009 6:-1e-009 7:-2e-009 
-1 0 1 0 0 0 0 0 0 0 0 0 0 0 0 1:-1.9e-008 3:-1e-009 
-1 0 1 0 0 0 0 0 0 0 0 0 0 0 0 1:-6.9999999e-009 2:-1e-009 5:-1e-009 6:-1e-009 7:-1e-009 
-1 0 1 0 0 0 0 0 0 0 0 0 0 0 0 1:-5.9999999e-009 2:-1e-009 3:-1e-009 6:-1e-009 7:-1e-009 
-1 0 1 0 0 0 0 0 0 0 0 0 0 0 0 1:-1.6e-008 2:-1e-009 3:-1e-009 5:-1e-009 6:-1e-009 7:-4e-009 
-1 0 1 0 0 0 0 0 0 0 0 0 0 0 0 1:-2.3e-008 6:-1e-009 7:-1e-009 
-0 0 1 0 0 0 0 0 0 0 0 0 0 0 0 1:-4.9999999e-009 3:-1e-009 5:-1e-009 
-1 0 1 0 0 0 0 0 0 0 0 0 0 0 0 1:-3.9999999e-009 7:-1e-009 
-1 0 1 0 0 0 0 0 0 0 0 0 0 0 0 1:-2e-009 
-0 0 1 0 0 0 0 0 0 0 0 0 0 0 0 1:-1.4e-008 7:-3e-009 
-1 0 1 0 0 0 0 0 0 0 0 0 0 0 0 1:-1.1e-008 3:-1e-009 6:-1e-009 7:-1e-009 
-1 0 1 0 0 0 0 0 0 0 0 0 0 0 0 1:-2.9e-008 3:-1e-009 7:-2e-009 
-1 0 1 0 0 0 0 0 0 0 0 0 0 0 0 1:-3.0999999e-008 6:-1e-009 7:-1e-009 
-1 0 1 0 0 0 0 0 0 0 0 0 0 0 0 1:-3.0999999e-008 6:-1e-009 7:-1e-009 
-1 0 1 0 0 0 0 0 0 0 0 0 0 0 0 1:-2.6e-008 3:-1e-009 
-1 0 1 0 0 0 0 0 0 0 0 0 0 0 0 1:-2.3e-008 6:-1e-009 7:-1e-009 
-1 0 1 0 0 0 0 0 0 0 0 0 0 0 0 1:-1.2e-008 6:-1e-009 7:-1e-009 
-1 0 1 0 0 0 0 0 0 0 0 0 0 0 0 1:-2.2e-008 7:-2e-009 
-0 0 1 0 0 0 0 0 0 0 0 0 0 0 0 1:-1.3e-008 2:-1e-009 3:-1e-009 
-1 0 1 0 0 0 0 0 0 0 0 0 0 0 0 1:-1.1e-008 3:-1e-009 5:-1e-009 7:-3e-009 
-1 0 1 0 0 0 0 0 0 0 0 0 0 0 0 1:-1.3e-008 3:-1e-009 5:-1e-009 
-1 0 1 0 0 0 0 0 0 0 0 0 0 0 0 1:-1.7e-008 
-0 0 1 0 0 0 0 0 0 0 0 0 0 0 0 1:-4.9999999e-009 3:-1e-009 5:-1e-009 7:-1e-009 
-1 0 1 0 0 0 0 0 0 0 0 0 0 0 0 1:-5.9999999e-009 3:-1e-009 
-1 0 1 0 0 0 0 1 0 0 0 0 0 0 0 1:-1.5e-008 3:-1e-009 6:-1e-009 
-1 0 1 0 0 0 0 1 0 0 0 0 0 0 0 1:-8.9999998e-009 3:-1e-009 5:-1e-009 6:-1e-009 
-1 0 1 0 0 0 0 1 0 0 0 0 0 0 0 1:-5.9999999e-009 3:-1e-009 
-1 0 1 0 0 0 0 1 0 0 0 0 0 0 0 1:-1.5e-008 2:-1e-009 3:-1e-009 
-1 0 1 0 0 0 0 1 0 0 0 0 0 0 0 1:-9.9999998e-010 6:-1e-009 7:-1e-009 
-1 0 1 0 0 0 0 1 0 0 0 0 0 0 0 1:-3.9999999e-009 2:-1e-009 3:-1e-009 6:-1e-009 7:-1e-009 
-1 0 1 0 0 0 0 1 0 0 0 0 0 0 0 1:-1.8e-008 3:-1e-009 7:-1e-009 
-1 0 1 0 0 0 0 1 0 0 0 0 0 0 0 1:-5.9999999e-009 3:-1e-009 6:-1e-009 
-1 0 1 0 0 0 0 1 0 0 0 0 0 0 0 1:-2e-008 3:-1e-009 7:-2e-009 
-1 0 1 0 0 0 0 1 0 0 0 0 0 0 0 1:-1.6e-008 2:-1e-009 3:-1e-009 6:-1e-009 
-1 0 1 0 0 0 0 1 0 0 0 0 0 0 0 1:-1.2e-008 2:-1e-009 3:-1e-009 7:-1e-009 
-1 0 1 0 0 0 0 1 0 0 0 0 0 0 0 1:-1.2e-008 2:-1e-009 5:-1e-009 6:-1e-009 7:-2e-009 
-1 0 1 0 0 0 0 1 0 0 0 0 0 0 0 1:-2.9e-008 2:-1e-009 7:-1e-009 
-1 0 1 0 0 0 0 1 0 0 0 0 0 0 0 1:-1.3e-008 7:-1e-009 
-1 0 1 0 0 0 0 1 0 0 0 0 0 0 0 1:-1.7e-008 5:-1e-009 6:-1e-009 
-1 0 1 0 0 0 0 1 0 0 0 0 0 0 0 1:-2e-009 
-1 0 1 0 0 0 0 1 0 0 0 0 0 0 0 1:-3.9999999e-009 3:-1e-009 5:-1e-009 7:-1e-009 
-1 0 1 0 0 0 0 1 0 0 0 0 0 0 0 1:-1.8e-008 3:-1e-009 5:-1e-009 6:-1e-009 7:-1e-009 
-1 0 1 0 0 0 0 1 0 0 0 0 0 0 0 1:-5.9999999e-009 3:-1e-009 5:-1e-009 6:-1e-009 7:-1e-009 
-1 0 1 0 0 0 0 1 0 0 0 0 0 0 0 1:-1.1e-008 
-1 0 1 0 0 0 0 1 0 0 0 0 0 0 0 1:-1.4e-008 3:-1e-009 5:-1e-009 6:-1e-009 7:-1e-009 
-1 0 1 0 0 0 0 1 0 0 0 0 0 0 0 1:-2.7e-008 3:-1e-009 5:-1e-009 6:-1e-009 
-1 0 1 0 0 0 0 1 0 0 0 0 0 0 0 1:-1.8e-008 3:-1e-009 6:-1e-009 7:-1e-009 
-1 0 1 0 0 0 0 1 0 0 0 0 0 0 0 1:-3.1999999e-008 3:-1e-009 6:-1e-009 
-1 0 1 0 0 0 0 1 0 0 0 0 0 0 0 1:-2e-008 3:-1e-009 6:-1e-009 
-1 0 1 0 1 0 0 1 0 0 0 0 0 0 0 1:-7.9999999e-009 5:-1e-009 6:-1e-009 7:-1e-009 
-1 0 1 0 1 0 0 1 0 0 0 0 0 0 0 1:-2.2e-008 7:-1e-009 
-1 0 1 0 1 0 0 1 0 0 0 0 0 0 0 1:-2.9e-008 3:-1e-009 6:-1e-009 
-1 0 1 0 1 0 0 1 0 0 0 0 0 0 0 1:-1.2e-008 7:-2e-009 
-1 0 1 0 1 0 0 1 0 0 0 0 0 0 0 1:-2.9999999e-009 7:-1e-009 
-1 0 1 0 1 1 1 1 0 0 0 0 0 0 0 1:-9.9999998e-010 2:-1e-009 7:-1e-009 
-1 0 1 0 1 0 1 1 0 0 0 0 0 0 0 1:-2.4e-008 2:-1e-009 
-0 0 1 0 1 1 1 1 0 0 0 0 0 0 0 1:-2.9e-008 7:-5e-009 
-0 0 1 0 1 1 1 1 0 0 0 0 0 0 0 1:-1.5e-008 2:-1e-009 3:-1e-009 7:-2e-009 
-0 0 1 0 1 1 1 1 0 0 0 0 0 0 0 1:-2.9999999e-008 3:-1e-009 5:-1e-009 7:-4e-009 
-1 0 1 0 1 1 1 1 0 0 0 0 0 0 0 1:-1.3e-008 3:-1e-009 6:-1e-009 7:-1e-009 
-1 0 1 1 1 1 1 1 0 0 0 0 0 0 0 1:-1.2e-008 6:-1e-009 
-1 1 1 1 1 1 1 1 1 0 1 0 0 0 0 1:-1.2e-008 3:-1e-009 6:-1e-009 7:-1e-009 
-0 1 1 0 1 1 1 1 1 0 1 0 0 0 0 1:-2.2e-008 2:-1e-009 3:-1e-009 7:-2e-009 
-0 1 1 1 1 1 1 1 1 0 1 0 0 0 0 1:-3.9999999e-009 5:-1e-009 7:-3e-009 
-1 1 1 1 1 1 1 1 1 0 1 0 0 0 0 1:-3.0999999e-008 6:-1e-009 7:-1e-009 
-1 1 1 1 1 1 1 1 1 0 1 0 0 0 0 1:-1.9e-008 6:-1e-009 
-1 1 1 1 1 1 1 1 1 0 1 0 0 0 0 1:-9.9999998e-009 
-1 1 1 1 1 1 1 1 1 1 1 0 0 0 0 1:-1.3e-008 7:-2e-009 
-1 1 1 1 1 1 1 1 1 1 1 1 1 0 0 1:-2.5e-008 2:-1e-009 7:-1e-009 
-1 1 1 1 1 1 1 1 1 1 1 1 1 1 1 1:-2.1e-008 3:-1e-009 
-1 -1 1 1 1 1 1 1 1 0 1 0 0 0 0 1:-2.8e-008 3:-1e-009 
-1 -1 1 1 1 1 1 1 1 0 1 0 0 0 0 1:-2.1e-008 3:-1e-009 
-1 -1 1 1 1 1 1 1 1 0 1 0 0 0 0 1:-3.0999999e-008 5:-1e-009 6:-1e-009 
-1 -1 1 1 1 1 1 1 1 0 1 0 0 0 0 1:-1.5e-008 6:-1e-009 7:-1e-009 
-1 -1 1 1 1 1 1 1 1 0 1 0 0 0 0 1:-2.3e-008 3:-1e-009 5:-1e-009 7:-2e-009 
-1 -1 1 1 1 1 1 1 1 0 1 0 0 0 0 1:-1.8e-008 7:-3e-009 
-1 -1 1 1 1 1 1 1 1 1 1 0 0 0 0 1:-9.9999998e-009 7:-2e-009 
-1 -1 1 1 1 1 1 1 1 1 1 1 1 0 0 1:-1.6e-008 2:-1e-009 3:-1e-009 6:-1e-009 
-1 -1 1 1 1 1 1 1 1 1 1 1 1 1 1 1:-2.9999999e-008 5:-1e-009 6:-1e-009 7:-1e-009 
-1 -1 -0 0 0 0 0 0 0 0 0 0 0 0 0 1:-1.8e-008 6:-1e-009 
-1 -1 -1 0 0 0 0 0 0 0 0 0 0 0 0 1:-2.3e-008 2:-1e-009 3:-1e-009 5:-1e-009 7:-1e-009 
-1 -1 -1 0 0 0 0 0 0 0 0 0 0 0 0 1:-1.6e-008 2:-1e-009 3:-1e-009 6:-1e-009 
-1 -1 -0 0 0 0 0 0 0 0 0 0 0 0 0 6:-1e-009 
-1 -1 -1 0 0 0 0 0 0 0 0 0 0 0 0 1:-2e-008 3:-1e-009 
-1 -1 -0 0 0 0 0 0 0 0 0 0 0 0 0 1:-2.5e-008 3:-1e-009 
-1 -1 -0 0 0 0 0 0 0 0 0 0 0 0 0 1:-2.1e-008 2:-1e-009 3:-1e-009 6:-1e-009 7:-2e-009 
-1 -1 -0 0 0 0 0 0 0 0 0 0 0 0 0 1:-2.9999999e-008 3:-1e-009 7:-2e-009 
-1 -1 -0 0 0 0 0 0 0 0 0 0 0 0 0 1:-1.4e-008 
-1 -1 -0 0 0 0 0 0 0 0 0 0 0 0 0 1:-1.8e-008 3:-1e-009 6:-1e-009 
-1 -1 -0 0 0 0 0 0 0 0 0 0 0 0 0 1:-1.4e-008 2:-1e-009 6:-1e-009 
-1 -1 -0 0 0 0 0 0 0 0 0 0 0 0 0 1:-2.3e-008 
-1 -1 -0 0 0 0 0 0 0 0 0 0 0 0 0 1:-9.9999998e-010 2:-1e-009 7:-3e-009 
-1 -1 -0 0 0 0 0 0 0 0 0 0 0 0 0 1:-1.9e-008 2:-1e-009 3:-1e-009 6:-1e-009 7:-1e-009 
-1 -1 -0 0 0 0 0 0 0 0 0 0 0 0 0 1:-1.9e-008 3:-1e-009 5:-1e-009 6:-1e-009 
-1 -1 -0 0 0 0 0 0 0 0 0 0 0 0 0 1:-9.9999998e-010 3:-1e-009 
-1 -1 -0 0 0 0 0 0 0 0 0 0 0 0 0 1:-1.3e-008 3:-1e-009 
-1 -1 -0 0 0 0 0 0 0 0 0 0 0 0 0 1:-2.9e-008 6:-1e-009 7:-1e-009 
-1 -1 -0 0 0 0 0 0 0 0 0 0 0 0 0 1:-9.9999998e-009 3:-1e-009 5:-1e-009 
-1 -1 -1 0 0 0 0 0 0 0 0 0 0 0 0 1:-2.9999999e-008 3:-1e-009 5:-1e-009 6:-1e-009 7:-1e-009 
-1 -1 -0 0 0 0 0 0 0 0 0 0 0 0 0 
-1 -1 -0 0 0 0 0 0 0 0 0 0 0 0 0 1:-2e-009 7:-2e-009 
-1 -1 -0 0 0 0 0 0 0 0 0 0 0 0 0 1:-5.9999999e-009 6:-1e-009 7:-1e-009 
-1 -1 -1 0 0 0 0 0 0 0 0 0 0 0 0 1:-3.0999999e-008 5:-1e-009 
-1 -1 -0 0 0 0 0 0 0 0 0 0 0 0 0 1:-2.9999999e-009 7:-1e-009 
-1 -1 -0 0 0 0 0 0 0 0 0 0 0 0 0 1:-2e-009 2:-1e-009 7:-1e-009 
-1 -1 -0 0 0 0 0 0 0 0 0 0 0 0 0 1:-2e-009 5:-1e-009 6:-1e-009 
-1 -1 -0 0 0 0 0 0 0 0 0 0 0 0 0 1:-1.1e-008 6:-1e-009 
-1 -1 -0 0 0 0 0 0 0 0 0 0 0 0 0 1:-2.6e-008 2:-1e-009 5:-1e-009 6:-1e-009 7:-1e-009 
-1 -1 -0 0 0 0 0 0 0 0 0 0 0 0 0 1:-1.7e-008 2:-1e-009 7:-2e-009 
-1 -1 -0 0 0 0 0 1 0 0 0 0 0 0 0 1:-2e-009 7:-1e-009 
-1 -1 -0 0 0 0 0 1 0 0 0 0 0 0 0 1:-2.3e-008 7:-1e-009 
-1 -1 -0 0 0 0 0 1 0 0 0 0 0 0 0 1:-3.9999999e-009 5:-1e-009 7:-1e-009 
-1 -1 -0 0 0 0 0 1 0 0 0 0 0 0 0 1:-2.2e-008 2:-1e-009 3:-1e-009 5:-1e-009 
-1 -1 -0 0 0 0 0 1 0 0 0 0 0 0 0 1:-1.5e-008 6:-1e-009 7:-1e-009 
-1 -1 -0 0 0 0 0 1 0 0 0 0 0 0 0 1:-1.5e-008 2:-1e-009 6:-1e-009 7:-4e-009 
-1 -1 -0 0 0 0 0 1 0 0 0 0 0 0 0 1:-7.9999999e-009 2:-1e-009 6:-1e-009 
-1 -1 -0 0 0 0 0 1 0 0 0 0 0 0 0 1:-2.9999999e-008 3:-1e-009 6:-1e-009 
-1 -1 -0 0 0 0 0 1 0 0 0 0 0 0 0 1:-9.9999998e-009 2:-1e-009 3:-1e-009 5:-1e-009 6:-1e-009 7:-1e-009 
-1 -1 -0 0 0 0 0 1 0 0 0 0 0 0 0 1:-2.5e-008 5:-1e-009 
-1 -1 -0 0 0 0 0 1 0 0 0 0 0 0 0 1:-2.4e-008 6:-1e-009 7:-1e-009 
-1 -1 -0 0 0 0 0 1 0 0 0 0 0 0 0 1:-2e-009 3:-1e-009 6:-1e-009 7:-1e-009 
-1 -1 -0 0 0 0 0 1 0 0 0 0 0 0 0 1:-6.9999999e-009 3:-1e-009 6:-1e-009 7:-1e-009 
-1 -1 -1 0 0 0 0 1 0 0 0 0 0 0 0 1:-2.7e-008 3:-1e-009 
-1 -1 -1 0 0 0 0 1 0 0 0 0 0 0 0 1:-1.6e-008 3:-1e-009 6:-1e-009 7:-1e-009 
-1 -1 -0 0 0 0 0 1 0 0 0 0 0 0 0 1:-2e-009 3:-1e-009 7:-2e-009 
-1 -1 -0 0 0 0 0 1 0 0 0 0 0 0 0 1:-2.6e-008 
-1 -1 -1 0 0 0 0 1 0 0 0 0 0 0 0 1:-1.7e-008 3:-1e-009 6:-1e-009 7:-3e-009 
-1 -1 -0 0 0 0 0 1 0 0 0 0 0 0 0 1:-3.9999999e-009 3:-1e-009 5:-1e-009 6:-1e-009 7:-1e-009 
-1 -1 -0 0 0 0 0 1 0 0 0 0 0 0 0 1:-2e-009 5:-1e-009 7:-1e-009 
-1 -1 -0 0 0 0 0 1 0 0 0 0 0 0 0 1:-2.8e-008 3:-1e-009 7:-1e-009 
-1 -1 -0 0 0 0 0 1 0 0 0 0 0 0 0 1:-1.7e-008 3:-1e-009 5:-1e-009 6:-1e-009 7:-1e-009 
-1 -1 -0 0 0 0 0 1 0 0 0 0 0 0 0 1:-4.9999999e-009 5:-1e-009 6:-1e-009 
-1 -1 -0 0 0 0 0 1 0 0 0 0 0 0 0 1:-7.9999999e-009 6:-1e-009 7:-1e-009 
-1 -1 -0 0 0 0 0 1 0 0 0 0 0 0 0 1:-3.9999999e-009 3:-1e-009 6:-1e-009 7:-1e-009 
-1 -1 -0 0 1 0 0 1 0 0 0 0 0 0 0 1:-1.5e-008 5:-1e-009 7:-1e-009 
-1 -1 -0 0 1 0 0 1 0 0 0 0 0 0 0 1:-9.9999998e-009 3:-1e-009 6:-1e-009 7:-1e-009 
-1 -1 -0 0 1 0 0 1 0 0 0 0 0 0 0 1:-3.1999999e-008 
-1 -1 -0 0 1 0 0 1 0 0 0 0 0 0 0 1:-1.3e-008 6:-1e-009 
-1 -1 -0 0 1 0 0 1 0 0 0 0 0 0 0 1:-2e-008 3:-1e-009 6:-1e-009 
-1 -1 -0 0 1 0 1 1 0 0 0 0 0 0 0 3:-1e-009 6:-1e-009 
-1 -1 -0 0 1 1 1 1 0 0 0 0 0 0 0 1:-1.1e-008 3:-1e-009 7:-1e-009 
-1 -1 -0 0 1 1 1 1 0 0 0 0 0 0 0 1:-1.4e-008 
-1 -1 -0 0 1 1 1 1 0 0 0 0 0 0 0 1:-2.8e-008 
-1 -1 -0 0 1 1 1 1 0 0 0 0 0 0 0 1:-2.9999999e-008 6:-1e-009 7:-1e-009 
-1 -1 -0 0 1 1 1 1 0 0 0 0 0 0 0 1:-1.1e-008 6:-1e-009 7:-1e-009 
-1 -1 -0 0 1 1 1 1 0 0 0 0 0 0 0 1:-2.2e-008 7:-1e-009 
-1 -1 -0 1 1 1 1 1 1 0 1 0 0 0 0 1:-2.2e-008 2:-1e-009 6:-1e-009 
-1 -1 -0 1 1 1 1 1 1 0 1 0 0 0 0 1:-2.5e-008 5:-1e-009 6:-1e-009 
-1 -1 -0 1 1 1 1 1 1 0 1 0 0 0 0 1:-3.0999999e-008 3:-1e-009 
-1 -1 -0 1 1 1 1 1 1 0 1 0 0 0 0 1:-4.9999999e-009 5:-1e-009 6:-1e-009 
-1 -1 -1 1 1 1 1 1 1 0 1 0 0 0 0 1:-9.9999998e-009 3:-1e-009 6:-1e-009 7:-2e-009 
-1 -1 -0 1 1 1 1 1 1 0 1 0 0 0 0 1:-1.2e-008 6:-1e-009 7:-1e-009 
-1 -1 -0 1 1 1 1 1 1 1 1 0 0 0 0 1:-2e-009 5:-1e-009 7:-2e-009 
-1 -1 -0 1 1 1 1 1 1 1 1 1 1 0 0 1:-1.2e-008 5:-1e-009 
-1 -1 -0 1 1 1 1 1 1 1 1 1 1 1 1 1:-6.9999999e-009 3:-1e-009 6:-1e-009 7:-2e-009 
-1 -1 -1 -1 1 1 1 1 1 0 1 0 0 0 0 1:-2.9999999e-009 5:-1e-009 7:-2e-009 
-1 -1 -1 -1 1 1 1 1 1 0 1 0 0 0 0 1:-1.7e-008 6:-1e-009 7:-1e-009 
-1 -1 -1 -1 1 1 1 1 1 0 1 0 0 0 0 2:-1e-009 3:-1e-009 6:-1e-009 7:-2e-009 
-1 -1 -1 -1 1 1 1 1 1 0 1 0 0 0 0 1:-1.9e-008 6:-1e-009 7:-2e-009 
-1 -1 -1 -1 1 1 1 1 1 0 1 0 0 0 0 1:-7.9999999e-009 3:-1e-009 7:-2e-009 
-1 -1 -1 -1 1 1 1 1 1 0 1 0 0 0 0 1:-2e-008 3:-1e-009 5:-1e-009 7:-2e-009 
-1 -1 -1 -1 1 1 1 1 1 1 1 0 0 0 0 1:-8.9999998e-009 3:-1e-009 6:-1e-009 7:-1e-009 
-1 -1 -1 -1 1 1 1 1 1 1 1 1 1 0 0 1:-2.9e-008 6:-1e-009 7:-1e-009 
-1 -1 -1 -1 1 1 1 1 1 1 1 1 1 1 1 1:-5.9999999e-009 3:-1e-009 
-1 -1 -1 -1 -0 0 0 1 0 0 0 0 0 0 0 1:-2.1e-008 3:-1e-009 
-1 -1 -1 -1 -1 0 0 1 0 0 0 0 0 0 0 1:-2.9e-008 5:-1e-009 6:-1e-009 7:-2e-009 
-1 -1 -0 -1 -0 0 0 1 0 0 0 0 0 0 0 1:-1.4e-008 6:-1e-009 
-1 -1 -1 -1 -1 0 0 1 0 0 0 0 0 0 0 1:-9.9999998e-009 3:-1e-009 7:-1e-009 
-1 -1 -0 -1 -1 0 0 1 0 0 0 0 0 0 0 1:-9.9999998e-010 5:-1e-009 7:-1e-009 
-1 -1 -1 -1 -0 0 1 1 0 0 0 0 0 0 0 1:-2.6e-008 3:-1e-009 7:-1e-009 
-1 -1 -1 -1 -0 1 1 1 0 0 0 0 0 0 0 1:-2.9999999e-008 2:-1e-009 5:-1e-009 6:-1e-009 7:-3e-009 
-1 -1 -1 -1 -1 1 1 1 0 0 0 0 0 0 0 1:-1.6e-008 6:-1e-009 7:-1e-009 
-1 -1 -0 -1 -0 1 1 1 0 0 0 0 0 0 0 1:-2.8e-008 7:-2e-009 
-1 -1 -0 -1 -0 1 1 1 0 0 0 0 0 0 0 1:-8.9999998e-009 
-1 -1 -0 -1 -1 1 1 1 0 0 0 0 0 0 0 1:-6.9999999e-009 7:-1e-009 
-1 -1 -0 -1 -0 1 1 1 0 0 0 0 0 0 0 3:-1e-009 5:-1e-009 
-1 -1 -1 -1 -0 1 1 1 1 0 1 0 0 0 0 1:-2.2e-008 2:-1e-009 3:-1e-009 6:-1e-009 
-1 -1 -0 -1 -0 1 1 1 1 0 1 0 0 0 0 1:-2.6e-008 2:-1e-009 6:-1e-009 7:-2e-009 
-1 -1 -1 -1 -0 1 1 1 1 0 1 0 0 0 0 1:-1.4e-008 6:-1e-009 7:-2e-009 
-1 -1 -0 -1 -0 1 1 1 1 0 1 0 0 0 0 1:-2.6e-008 2:-1e-009 3:-1e-009 6:-1e-009 7:-3e-009 
-1 -1 -0 -1 -1 1 1 1 1 0 1 0 0 0 0 1:-5.9999999e-009 3:-1e-009 5:-1e-009 6:-1e-009 7:-1e-009 
-1 -1 -0 -1 -0 1 1 1 1 0 1 0 0 0 0 1:-6.9999999e-009 6:-1e-009 7:-1e-009 
-1 -1 -0 -1 -1 1 1 1 1 1 1 0 0 0 0 1:-2e-009 2:-1e-009 3:-1e-009 6:-1e-009 7:-1e-009 
-1 -1 -0 -1 -1 1 1 1 1 1 1 1 1 0 0 1:-1.5e-008 5:-1e-009 
-1 -1 -1 -1 -1 1 1 1 1 1 1 1 1 1 1 1:-2.1e-008 3:-1e-009 6:-1e-009 7:-2e-009 
-1 -1 -1 -1 -0 -1 1 1 0 0 0 0 0 0 0 1:-1.2e-008 5:-1e-009 6:-1e-009 
-1 -1 -1 -1 -1 -1 1 1 0 0 0 0 0 0 0 1:-1.2e-008 7:-1e-009 
-1 -1 -0 -1 -1 -1 1 1 0 0 0 0 0 0 0 1:-7.9999999e-009 3:-1e-009 6:-1e-009 7:-1e-009 
-1 -1 -0 -1 -1 -1 1 1 0 0 0 0 0 0 0 1:-8.9999998e-009 3:-1e-009 5:-1e-009 6:-1e-009 
-1 -1 -0 -1 -1 -1 1 1 1 0 0 0 0 0 0 1:-1.1e-008 2:-1e-009 3:-1e-009 
-1 -1 -0 -1 -0 -1 1 1 1 0 0 0 0 0 0 6:-1e-009 
-1 -1 -1 -1 -0 -1 1 1 0 0 1 0 0 0 0 1:-2.6e-008 2:-1e-009 3:-1e-009 
-1 -1 -0 -1 -1 -1 1 1 1 0 1 0 0 0 0 1:-2e-009 3:-1e-009 5:-1e-009 6:-1e-009 
-1 -1 -1 -1 -0 -1 1 1 0 0 1 0 0 0 0 1:-2.8e-008 
-1 -1 -1 -1 -1 -1 1 1 1 0 1 0 0 0 0 1:-2.9e-008 6:-1e-009 7:-1e-009 
-1 -1 -1 -1 -0 -1 1 1 1 0 1 0 0 0 0 1:-3.0999999e-008 3:-1e-009 5:-1e-009 6:-1e-009 7:-2e-009 
-1 -1 -0 -1 -1 -1 1 1 1 0 1 0 0 0 0 6:-1e-009 7:-1e-009 
-1 -1 -1 -1 -1 -1 1 1 1 1 1 0 0 0 0 1:-2.2e-008 6:-1e-009 7:-2e-009 
-1 -1 -1 -1 -1 -1 1 1 1 1 1 1 1 0 0 1:-1.5e-008 2:-1e-009 7:-3e-009 
-1 -1 -1 -1 -0 -1 1 1 1 1 1 1 1 1 1 1:-3.0999999e-008 2:-1e-009 7:-2e-009 
-1 -1 -0 -1 -0 -1 -1 1 0 0 0 0 0 0 0 1:-2.9999999e-008 2:-1e-009 3:-1e-009 6:-1e-009 
-1 -1 -1 -1 -1 -1 -1 1 0 0 0 0 0 0 0 1:-1.6e-008 6:-1e-009 7:-2e-009 
-1 -1 -0 -1 -1 -1 -1 1 0 0 0 0 0 0 0 1:-8.9999998e-009 5:-1e-009 6:-1e-009 
-1 -1 -0 -1 -0 -1 -1 1 0 0 0 0 0 0 0 1:-2e-009 2:-1e-009 3:-1e-009 
-1 -1 -0 -1 -0 -1 -1 1 0 0 0 0 0 0 0 1:-2.6e-008 2:-1e-009 7:-1e-009 
-1 -1 -1 -1 -1 -1 -1 1 0 0 0 0 0 0 0 1:-2.9999999e-008 3:-1e-009 5:-1e-009 6:-1e-009 7:-1e-009 
-1 -1 -1 -1 -0 -1 -1 1 0 0 0 0 0 0 0 1:-1.8e-008 2:-1e-009 3:-1e-009 5:-1e-009 
-1 -1 -1 -1 -0 -1 -1 1 1 0 1 0 0 0 0 1:-2.9999999e-008 3:-1e-009 5:-1e-009 7:-1e-009 
-1 -1 -0 -1 -1 -1 -1 1 1 0 1 0 0 0 0 1:-9.9999998e-010 7:-2e-009 
-1 -1 -1 -1 -1 -1 -1 1 1 0 1 0 0 0 0 1:-1.8e-008 6:-1e-009 
-1 -1 -1 -1 -1 -1 -1 1 1 0 1 0 0 0 0 1:-1.2e-008 6:-1e-009 7:-1e-009 
-1 -1 -0 -1 -1 -1 -0 1 1 0 1 0 0 0 0 1:-9.9999998e-010 5:-1e-009 6:-1e-009 7:-2e-009 
-1 -1 -0 -1 -0 -1 -1 1 1 0 1 0 0 0 0 1:-9.9999998e-010 
-1 -1 -1 -1 -0 -1 -1 1 1 1 1 0 0 0 0 1:-2.7e-008 6:-1e-009 
-1 -1 -1 -1 -1 -1 -1 1 1 1 1 1 1 0 0 1:-2.2e-008 3:-1e-009 5:-1e-009 6:-1e-009 7:-2e-009 
-1 -1 -1 -1 -1 -1 -1 1 1 1 1 1 1 1 1 1:-1.3e-008 3:-1e-009 5:-1e-009 6:-1e-009 7:-1e-009 
-1 -1 -0 -1 -0 -0 -0 -1 0 0 0 0 0 0 0 1:-1.3e-008 3:-1e-009 5:-1e-009 7:-2e-009 
-1 -1 -0 -1 -0 -0 -0 -0 0 0 0 0 0 0 0 1:-2.9e-008 3:-1e-009 7:-1e-009 
-1 -1 -0 -1 -0 -1 -0 -0 0 0 0 0 0 0 0 1:-1.2e-008 3:-1e-009 6:-1e-009 
-1 -1 -0 -1 -1 -1 -1 -1 0 0 0 0 0 0 0 2:-1e-009 7:-1e-009 
-1 -1 -1 -1 -1 -0 -0 -1 0 0 0 0 0 0 0 1:-1.7e-008 3:-1e-009 7:-1e-009 
-1 -1 -0 -1 -0 -0 -0 -1 0 0 0 0 0 0 0 1:-2.9999999e-009 6:-1e-009 7:-2e-009 
-1 -1 -0 -1 -0 -1 -0 -1 0 0 0 0 0 0 0 1:-2.7e-008 6:-1e-009 7:-1e-009 
-1 -1 -1 -1 -0 -0 -0 -1 0 0 0 0 0 0 0 1:-2.9e-008 3:-1e-009 7:-1e-009 
-1 -1 -0 -1 -0 -1 -0 -1 0 0 0 0 0 0 0 1:-2.7e-008 6:-1e-009 
-1 -1 -0 -1 -0 -0 -0 -0 0 0 0 0 0 0 0 1:-3.9999999e-009 7:-1e-009 
-1 -1 -1 -1 -0 -1 -0 -0 0 0 0 0 0 0 0 1:-1.6e-008 5:-1e-009 6:-1e-009 
-1 -1 -0 -1 -1 -0 -0 -0 0 0 0 0 0 0 0 1:-6.9999999e-009 3:-1e-009 7:-1e-009 
-1 -1 -0 -1 -1 -1 -1 -0 0 0 0 0 0 0 0 1:-2.9e-008 6:-1e-009 7:-1e-009 
-1 -1 -0 -1 -0 -0 -0 -0 0 0 0 0 0 0 0 1:-2.3e-008 7:-1e-009 
-1 -1 -1 -1 -0 -0 -0 -1 0 0 0 0 0 0 0 1:-2.9999999e-008 6:-1e-009 
-1 -1 -1 -1 -0 -1 -0 -0 0 0 0 0 0 0 0 1:-2.9e-008 5:-1e-009 6:-1e-009 7:-1e-009 
-1 -1 -1 -1 -0 -1 -1 -1 0 0 0 0 0 0 0 1:-1.4e-008 6:-1e-009 7:-2e-009 
-1 -1 -0 -1 -0 -1 -0 -0 0 0 0 0 0 0 0 1:-1.4e-008 5:-1e-009 
-1 -1 -0 -1 -1 -1 -0 -0 0 0 0 0 0 0 0 1:-6.9999999e-009 3:-1e-009 7:-1e-009 
-1 -1 -0 -1 -0 -0 -1 -0 0 0 0 0 0 0 0 1:-1.1e-008 5:-1e-009 6:-1e-009 
-1 -1 -0 -1 -0 -1 -1 -0 0 0 0 0 0 0 0 1:-2.6e-008 3:-1e-009 6:-1e-009 
-1 -1 -0 -1 -0 -0 -1 -0 0 0 0 0 0 0 0 1:-1.1e-008 3:-1e-009 
-1 -1 -0 -1 -0 -1 -1 -0 0 0 0 0 0 0 0 1:-6.9999999e-009 3:-1e-009 6:-1e-009 7:-1e-009 
-1 -1 -0 -1 -1 -1 -0 -1 0 0 0 0 0 0 0 1:-2.9999999e-009 3:-1e-009 7:-2e-009 
-1 -1 -0 -1 -0 -0 -0 -0 0 0 0 0 0 0 0 1:-2.5e-008 
-1 -1 -0 -1 -0 -0 -0 -0 0 0 0 0 0 0 0 1:-5.9999999e-009 3:-1e-009 
-1 -1 -0 -1 -0 -0 -0 -0 0 0 0 0 0 0 0 2:-1e-009 3:-1e-009 6:-1e-009 7:-5e-009 
-1 -1 -0 -1 -1 -0 -0 -1 0 0 0 0 0 0 0 1:-1.7e-008 
-1 -1 -0 -1 -0 -0 -0 -0 0 0 0 0 0 0 0 1:-4.9999999e-009 5:-1e-009 7:-2e-009 
-1 -1 -0 -1 -0 -0 -0 -0 0 0 0 0 0 0 0 1:-4.9999999e-009 3:-1e-009 7:-2e-009 
-1 -1 -0 -1 -0 -1 -1 -0 0 0 0 0 0 0 0 1:-2.9999999e-008 6:-1e-009 7:-1e-009 
-1 -1 -0 -1 -0 -0 -1 -0 0 0 0 0 0 0 0 1:-2.9999999e-009 3:-1e-009 6:-1e-009 
-1 -1 -0 -1 -0 -0 -0 -0 0 0 0 0 0 0 0 1:-2.7e-008 3:-1e-009 5:-1e-009 6:-1e-009 
-1 -1 -0 -1 -0 -0 -0 -0 0 0 0 0 0 0 0 1:-4.9999999e-009 6:-1e-009 7:-2e-009 
-1 -1 -1 -1 -1 -1 -0 -0 0 0 0 0 0 0 0 1:-2e-008 6:-1e-009 7:-1e-009 
-1 -1 -1 -1 -0 -1 -0 -0 0 0 0 0 0 0 0 1:-1.1e-008 3:-1e-009 6:-1e-009 7:-1e-009 
-1 -1 -0 -1 -0 -0 -1 -1 0 0 0 0 0 0 0 1:-2.9999999e-008 3:-1e-009 6:-1e-009 7:-1e-009 
-1 -1 -0 -1 -1 -1 -1 -1 1 0 1 0 0 0 0 1:-8.9999998e-009 3:-1e-009 
-1 -1 -0 -1 -0 -0 -0 -0 1 0 1 0 0 0 0 1:-3.9999999e-009 3:-1e-009 5:-1e-009 7:-1e-009 
-1 -1 -0 -1 -0 -0 -0 -0 1 0 1 0 0 0 0 1:-2.3e-008 3:-1e-009 7:-1e-009 
-1 -1 -0 -1 -0 -1 -1 -0 1 0 1 0 0 0 0 1:-2.3e-008 2:-1e-009 6:-1e-009 7:-1e-009 
-1 -1 -1 -1 -0 -1 -0 -1 1 0 1 0 0 0 0 1:-2.3e-008 3:-1e-009 7:-1e-009 
-1 -1 -0 -1 -0 -0 -1 -1 1 0 1 0 0 0 0 1:-1.2e-008 3:-1e-009 6:-1e-009 7:-2e-009 
-1 -1 -0 -1 -0 -1 -1 -1 1 1 1 0 0 0 0 1:-2.9999999e-009 2:-1e-009 7:-1e-009 
-1 -1 -0 -1 -0 -1 -0 -0 1 1 1 1 1 0 0 1:-5.9999999e-009 6:-1e-009 
-1 -1 -0 -1 -0 -0 -1 -0 1 1 1 1 1 1 1 1:-2.7e-008 
-1 -1 -1 -1 -1 -1 -1 -1 -1 0 1 0 0 0 0 1:-6.9999999e-009 7:-1e-009 
-1 -1 -1 -1 -1 -1 -1 -1 -1 0 1 0 0 0 0 1:-4.9999999e-009 
-1 -1 -1 -1 -1 -1 -1 -1 -1 0 1 0 0 0 0 1:-3.0999999e-008 3:-1e-009 5:-1e-009 6:-1e-009 7:-2e-009 
-1 -1 -1 -1 -1 -1 -1 -1 -1 0 1 0 0 0 0 1:-1.3e-008 6:-1e-009 7:-1e-009 
-1 -1 -1 -1 -1 -1 -1 -1 -1 0 1 0 0 0 0 1:-1.4e-008 3:-1e-009 
-1 -1 -1 -1 -1 -1 -1 -1 -1 0 1 0 0 0 0 1:-7.9999999e-009 7:-1e-009 
-1 -1 -1 -1 -1 -1 -1 -1 -1 1 1 0 0 0 0 1:-9.9999998e-010 3:-1e-009 6:-1e-009 7:-2e-009 
-1 -1 -1 -1 -1 -1 -1 -1 -1 1 1 1 1 0 0 1:-2.4e-008 3:-1e-009 5:-1e-009 
-1 -1 -1 -1 -1 -1 -1 -1 -1 1 1 1 1 1 1 1:-2.2e-008 6:-1e-009 7:-2e-009 
-1 -1 -1 -1 -1 -1 -1 -1 -1 -1 1 0 0 0 0 6:-1e-009 
-1 -1 -1 -1 -1 -1 -1 -1 -1 -1 1 1 1 0 0 1:-2.3e-008 3:-1e-009 5:-1e-009 6:-1e-009 
-1 -1 -1 -1 -1 -1 -1 -1 -1 -1 1 1 1 1 1 1:-2.9999999e-008 6:-1e-009 7:-2e-009 
-1 -1 -1 -1 -1 -1 -1 -1 -1 -1 -1 0 0 0 0 1:-2.9e-008 3:-1e-009 6:-1e-009 7:-1e-009 
-1 -1 -1 -1 -1 -1 -1 -1 -1 -1 -0 0 0 0 0 1:-1.7e-008 6:-1e-009 7:-1e-009 
-1 -1 -1 -1 -1 -1 -1 -1 -1 -1 -0 0 0 0 0 1:-1.6e-008 2:-1e-009 5:-1e-009 
-1 -1 -1 -1 -1 -1 -1 -1 -1 -1 -0 0 0 0 0 1:-1.4e-008 3:-1e-009 6:-1e-009 7:-4e-009 
-1 -1 -1 -1 -1 -1 -1 -1 -1 -1 -1 0 0 0 0 2:-1e-009 3:-1e-009 5:-1e-009 7:-2e-009 
-1 -1 -1 -1 -1 -1 -1 -1 -1 -1 -0 0 0 0 0 1:-2e-009 3:-1e-009 7:-2e-009 
-1 -1 -1 -1 -1 -1 -1 -1 -1 -1 -0 0 0 0 0 1:-2.9999999e-008 3:-1e-009 7:-1e-009 
-1 -1 -1 -1 -1 -1 -1 -1 -1 -1 -0 1 1 0 0 1:-2.1e-008 2:-1e-009 
-1 -1 -1 -1 -1 -1 -1 -1 -1 -1 -1 1 1 1 1 1:-2.4e-008 6:-1e-009 7:-1e-009 
-1 -1 -1 -1 -1 -1 -1 -1 -1 -1 -1 -1 1 0 0 1:-7.9999999e-009 2:-1e-009 3:-1e-009 7:-1e-009 
-1 -1 -1 -1 -1 -1 -1 -1 -1 -1 -1 -1 1 1 1 1:-2.7e-008 3:-1e-009 6:-1e-009 7:-2e-009 
-1 -1 -1 -1 -1 -1 -1 -1 -1 -1 -1 -1 -1 0 0 1:-2e-008 3:-1e-009 
-1 -1 -1 -1 -1 -1 -1 -1 -1 -1 -1 -1 -1 1 1 1:-2.1e-008 7:-1e-009 
-1 -1 -1 -1 -1 -1 -1 -1 -1 -1 -1 -1 -1 -1 1 1:-5.9999999e-009 6:-1e-009 
-1 -1 -1 -1 -1 -1 -1 -1 -1 -1 -1 -1 -1 -1 -1 1:-1.9e-008 2:-1e-009 6:-1e-009 7:-2e-009 
